<?xml version="1.0"?>
<opencv_storage>
<cascade>
  <stageType>BOOST</stageType>
  <featureType>HAAR</featureType>
  <height>20</height>
  <width>20</width>
  <stageParams>
    <boostType>GAB</boostType>
    <minHitRate>9.9500000476837158e-01</minHitRate>
    <maxFalseAlarm>5.0000000000000000e-01</maxFalseAlarm>
    <weightTrimRate>9.4999999999999996e-01</weightTrimRate>
    <maxDepth>1</maxDepth>
    <maxWeakCount>100</maxWeakCount></stageParams>
  <featureParams>
    <maxCatCount>0</maxCatCount>
    <featSize>1</featSize>
    <mode>BASIC</mode></featureParams>
  <stageNum>20</stageNum>
  <stages>
    <!-- stage 0 -->
    <_>
      <maxWeakCount>5</maxWeakCount>
      <stageThreshold>-1.0794266462326050e+00</stageThreshold>
      <weakClassifiers>
        <_>
          <internalNodes>
            0 -1 35 5.2297562360763550e-02</internalNodes>
          <leafValues>
            -6.5925925970077515e-01 8.9166665077209473e-01</leafValues></_>
        <_>
          <internalNodes>
            0 -1 184 4.7639966011047363e-02</internalNodes>
          <leafValues>
            -4.9494478106498718e-01 7.5391525030136108e-01</leafValues></_>
        <_>
          <internalNodes>
            0 -1 432 -2.0439412444829941e-02</internalNodes>
          <leafValues>
            7.6007467508316040e-01 -3.5122072696685791e-01</leafValues></_>
        <_>
          <internalNodes>
            0 -1 254 3.8087200373411179e-03</internalNodes>
          <leafValues>
            -3.0988499522209167e-01 6.7286390066146851e-01</leafValues></_>
        <_>
          <internalNodes>
            0 -1 400 -7.6014883816242218e-03</internalNodes>
          <leafValues>
            7.4483251571655273e-01 -2.4686579406261444e-01</leafValues></_></weakClassifiers></_>
    <!-- stage 1 -->
    <_>
      <maxWeakCount>10</maxWeakCount>
      <stageThreshold>-1.4203882217407227e+00</stageThreshold>
      <weakClassifiers>
        <_>
          <internalNodes>
            0 -1 59 8.0078408122062683e-02</internalNodes>
          <leafValues>
            -5.2839928865432739e-01 8.7812840938568115e-01</leafValues></_>
        <_>
          <internalNodes>
            0 -1 183 5.7879637926816940e-02</internalNodes>
          <leafValues>
            -4.2321488261222839e-01 7.6274472475051880e-01</leafValues></_>
        <_>
          <internalNodes>
            0 -1 294 -5.4169207811355591e-02</internalNodes>
          <leafValues>
            7.0612722635269165e-01 -2.5944337248802185e-01</leafValues></_>
        <_>
          <internalNodes>
            0 -1 249 -4.2126299813389778e-03</internalNodes>
          <leafValues>
            5.0065904855728149e-01 -3.3085238933563232e-01</leafValues></_>
        <_>
          <internalNodes>
            0 -1 147 2.0139146596193314e-02</internalNodes>
          <leafValues>
            -1.9496421515941620e-01 6.2196815013885498e-01</leafValues></_>
        <_>
          <internalNodes>
            0 -1 475 -2.5714929215610027e-03</internalNodes>
          <leafValues>
            3.8955742120742798e-01 -2.6093381643295288e-01</leafValues></_>
        <_>
          <internalNodes>
            0 -1 4 3.5265791416168213e-01</internalNodes>
          <leafValues>
            2.0760485529899597e-01 -4.6047165989875793e-01</leafValues></_>
        <_>
          <internalNodes>
            0 -1 27 4.0048046503216028e-04</internalNodes>
          <leafValues>
            1.9469884037971497e-01 -4.8243156075477600e-01</leafValues></_>
        <_>
          <internalNodes>
            0 -1 25 3.8066815584897995e-02</internalNodes>
          <leafValues>
            -2.1883696317672729e-01 4.5234721899032593e-01</leafValues></_>
        <_>
          <internalNodes>
            0 -1 47 -3.5921625792980194e-02</internalNodes>
          <leafValues>
            7.0611876249313354e-01 -1.2393008172512054e-01</leafValues></_></weakClassifiers></_>
    <!-- stage 2 -->
    <_>
      <maxWeakCount>13</maxWeakCount>
      <stageThreshold>-1.2385927438735962e+00</stageThreshold>
      <weakClassifiers>
        <_>
          <internalNodes>
            0 -1 35 9.3776404857635498e-02</internalNodes>
          <leafValues>
            -4.7302159667015076e-01 8.0826270580291748e-01</leafValues></_>
        <_>
          <internalNodes>
            0 -1 235 7.8385993838310242e-02</internalNodes>
          <leafValues>
            -4.7464856505393982e-01 6.7324739694595337e-01</leafValues></_>
        <_>
          <internalNodes>
            0 -1 237 -7.4175833724439144e-03</internalNodes>
          <leafValues>
            6.2289583683013916e-01 -2.7427238225936890e-01</leafValues></_>
        <_>
          <internalNodes>
            0 -1 477 3.2458782196044922e-02</internalNodes>
          <leafValues>
            -2.6142090559005737e-01 5.5450981855392456e-01</leafValues></_>
        <_>
          <internalNodes>
            0 -1 99 1.8387831747531891e-02</internalNodes>
          <leafValues>
            -2.8549242019653320e-01 4.8873555660247803e-01</leafValues></_>
        <_>
          <internalNodes>
            0 -1 417 2.5748568587005138e-03</internalNodes>
          <leafValues>
            -2.1364334225654602e-01 4.3165701627731323e-01</leafValues></_>
        <_>
          <internalNodes>
            0 -1 204 5.3508863784372807e-03</internalNodes>
          <leafValues>
            -2.6105132699012756e-01 3.7067288160324097e-01</leafValues></_>
        <_>
          <internalNodes>
            0 -1 482 1.8551596440374851e-03</internalNodes>
          <leafValues>
            -2.4973721802234650e-01 3.5290929675102234e-01</leafValues></_>
        <_>
          <internalNodes>
            0 -1 3 7.7817603945732117e-02</internalNodes>
          <leafValues>
            -1.3533827662467957e-01 5.4165327548980713e-01</leafValues></_>
        <_>
          <internalNodes>
            0 -1 560 3.9192577241919935e-04</internalNodes>
          <leafValues>
            -2.0663718879222870e-01 3.5233932733535767e-01</leafValues></_>
        <_>
          <internalNodes>
            0 -1 553 -4.7632735222578049e-03</internalNodes>
          <leafValues>
            2.7679717540740967e-01 -2.4956788122653961e-01</leafValues></_>
        <_>
          <internalNodes>
            0 -1 143 -1.4481749385595322e-03</internalNodes>
          <leafValues>
            -6.5956389904022217e-01 1.2207302451133728e-01</leafValues></_>
        <_>
          <internalNodes>
            0 -1 628 -1.2456027325242758e-03</internalNodes>
          <leafValues>
            -4.8235449194908142e-01 1.1205552518367767e-01</leafValues></_></weakClassifiers></_>
    <!-- stage 3 -->
    <_>
      <maxWeakCount>19</maxWeakCount>
      <stageThreshold>-1.2438809871673584e+00</stageThreshold>
      <weakClassifiers>
        <_>
          <internalNodes>
            0 -1 35 1.1703559756278992e-01</internalNodes>
          <leafValues>
            -3.8331928849220276e-01 8.0253720283508301e-01</leafValues></_>
        <_>
          <internalNodes>
            0 -1 174 1.0290123522281647e-01</internalNodes>
          <leafValues>
            -4.0646412968635559e-01 6.6524070501327515e-01</leafValues></_>
        <_>
          <internalNodes>
            0 -1 440 2.0759478211402893e-03</internalNodes>
          <leafValues>
            -3.2996624708175659e-01 4.9893921613693237e-01</leafValues></_>
        <_>
          <internalNodes>
            0 -1 22 5.3699806332588196e-02</internalNodes>
          <leafValues>
            -2.8858911991119385e-01 5.0057029724121094e-01</leafValues></_>
        <_>
          <internalNodes>
            0 -1 327 -2.0364703959785402e-04</internalNodes>
          <leafValues>
            2.6903244853019714e-01 -3.1260263919830322e-01</leafValues></_>
        <_>
          <internalNodes>
            0 -1 175 -2.6826001703739166e-02</internalNodes>
          <leafValues>
            5.5847644805908203e-01 -1.3850262761116028e-01</leafValues></_>
        <_>
          <internalNodes>
            0 -1 100 1.2714311480522156e-01</internalNodes>
          <leafValues>
            -1.7629726231098175e-01 4.8439744114875793e-01</leafValues></_>
        <_>
          <internalNodes>
            0 -1 536 -3.8555122446268797e-03</internalNodes>
          <leafValues>
            4.1264757513999939e-01 -1.9521233439445496e-01</leafValues></_>
        <_>
          <internalNodes>
            0 -1 358 -1.3676440343260765e-02</internalNodes>
          <leafValues>
            4.5529299974441528e-01 -1.6443942487239838e-01</leafValues></_>
        <_>
          <internalNodes>
            0 -1 9 -2.0489040017127991e-01</internalNodes>
          <leafValues>
            -4.4762840867042542e-01 1.6619585454463959e-01</leafValues></_>
        <_>
          <internalNodes>
            0 -1 262 -1.8789763998938724e-05</internalNodes>
          <leafValues>
            2.8512284159660339e-01 -2.2524063289165497e-01</leafValues></_>
        <_>
          <internalNodes>
            0 -1 209 2.0160477142781019e-03</internalNodes>
          <leafValues>
            -2.3901489377021790e-01 2.9103288054466248e-01</leafValues></_>
        <_>
          <internalNodes>
            0 -1 644 1.1949469335377216e-03</internalNodes>
          <leafValues>
            1.1413560807704926e-01 -5.5308467149734497e-01</leafValues></_>
        <_>
          <internalNodes>
            0 -1 538 6.6163111478090286e-04</internalNodes>
          <leafValues>
            -2.1516393125057220e-01 3.0007123947143555e-01</leafValues></_>
        <_>
          <internalNodes>
            0 -1 375 3.0491583049297333e-02</internalNodes>
          <leafValues>
            -1.6918407380580902e-01 3.8742023706436157e-01</leafValues></_>
        <_>
          <internalNodes>
            0 -1 42 1.7836722545325756e-03</internalNodes>
          <leafValues>
            1.1192510277032852e-01 -5.8756673336029053e-01</leafValues></_>
        <_>
          <internalNodes>
            0 -1 336 -6.3690324313938618e-03</internalNodes>
          <leafValues>
            1.9543424248695374e-01 -3.3291751146316528e-01</leafValues></_>
        <_>
          <internalNodes>
            0 -1 26 1.1281768232584000e-01</internalNodes>
          <leafValues>
            -1.2118584662675858e-01 5.7210266590118408e-01</leafValues></_>
        <_>
          <internalNodes>
            0 -1 298 8.3141386508941650e-02</internalNodes>
          <leafValues>
            -6.2177602201700211e-02 8.4015434980392456e-01</leafValues></_></weakClassifiers></_>
    <!-- stage 4 -->
    <_>
      <maxWeakCount>24</maxWeakCount>
      <stageThreshold>-1.3034714460372925e+00</stageThreshold>
      <weakClassifiers>
        <_>
          <internalNodes>
            0 -1 82 6.8120054900646210e-02</internalNodes>
          <leafValues>
            -3.9539539813995361e-01 6.9715142250061035e-01</leafValues></_>
        <_>
          <internalNodes>
            0 -1 174 1.1926089227199554e-01</internalNodes>
          <leafValues>
            -3.8628026843070984e-01 5.5530977249145508e-01</leafValues></_>
        <_>
          <internalNodes>
            0 -1 147 2.1481376141309738e-02</internalNodes>
          <leafValues>
            -2.4185213446617126e-01 6.0392713546752930e-01</leafValues></_>
        <_>
          <internalNodes>
            0 -1 475 -4.5808060094714165e-03</internalNodes>
          <leafValues>
            4.3922761082649231e-01 -2.3524270951747894e-01</leafValues></_>
        <_>
          <internalNodes>
            0 -1 533 2.4440430104732513e-02</internalNodes>
          <leafValues>
            -1.6174374520778656e-01 5.0861728191375732e-01</leafValues></_>
        <_>
          <internalNodes>
            0 -1 359 -1.3048624619841576e-02</internalNodes>
          <leafValues>
            3.6448472738265991e-01 -2.0051634311676025e-01</leafValues></_>
        <_>
          <internalNodes>
            0 -1 299 -5.9306424111127853e-02</internalNodes>
          <leafValues>
            3.1201073527336121e-01 -2.0250995457172394e-01</leafValues></_>
        <_>
          <internalNodes>
            0 -1 609 -1.8505026819184422e-03</internalNodes>
          <leafValues>
            -4.8110392689704895e-01 1.2721945345401764e-01</leafValues></_>
        <_>
          <internalNodes>
            0 -1 205 -5.6874384172260761e-03</internalNodes>
          <leafValues>
            2.1248185634613037e-01 -2.7355894446372986e-01</leafValues></_>
        <_>
          <internalNodes>
            0 -1 167 2.3709475062787533e-03</internalNodes>
          <leafValues>
            9.0918771922588348e-02 -5.8947873115539551e-01</leafValues></_>
        <_>
          <internalNodes>
            0 -1 381 2.3906547576189041e-03</internalNodes>
          <leafValues>
            -1.7245900630950928e-01 3.1653565168380737e-01</leafValues></_>
        <_>
          <internalNodes>
            0 -1 383 -2.8672828339040279e-03</internalNodes>
          <leafValues>
            3.6820948123931885e-01 -1.9145394861698151e-01</leafValues></_>
        <_>
          <internalNodes>
            0 -1 50 -1.1008438887074590e-03</internalNodes>
          <leafValues>
            -5.2237689495086670e-01 1.1548879742622375e-01</leafValues></_>
        <_>
          <internalNodes>
            0 -1 162 -5.2030343795195222e-04</internalNodes>
          <leafValues>
            1.9949845969676971e-01 -2.9396569728851318e-01</leafValues></_>
        <_>
          <internalNodes>
            0 -1 199 -8.7751857936382294e-03</internalNodes>
          <leafValues>
            4.4698807597160339e-01 -1.2667034566402435e-01</leafValues></_>
        <_>
          <internalNodes>
            0 -1 464 -2.9785041697323322e-03</internalNodes>
          <leafValues>
            3.0653262138366699e-01 -1.8884161114692688e-01</leafValues></_>
        <_>
          <internalNodes>
            0 -1 502 6.5992050804197788e-04</internalNodes>
          <leafValues>
            1.4486819505691528e-01 -4.4311544299125671e-01</leafValues></_>
        <_>
          <internalNodes>
            0 -1 586 -7.5579318217933178e-04</internalNodes>
          <leafValues>
            -4.7636428475379944e-01 1.0992266982793808e-01</leafValues></_>
        <_>
          <internalNodes>
            0 -1 503 -8.0516526941210032e-04</internalNodes>
          <leafValues>
            -3.7751814723014832e-01 1.3674230873584747e-01</leafValues></_>
        <_>
          <internalNodes>
            0 -1 464 6.9690337404608727e-03</internalNodes>
          <leafValues>
            -1.2067390233278275e-01 3.8066068291664124e-01</leafValues></_>
        <_>
          <internalNodes>
            0 -1 634 5.7613737881183624e-03</internalNodes>
          <leafValues>
            9.1268800199031830e-02 -4.8368188738822937e-01</leafValues></_>
        <_>
          <internalNodes>
            0 -1 529 5.2773038623854518e-04</internalNodes>
          <leafValues>
            -1.7898175120353699e-01 2.5590255856513977e-01</leafValues></_>
        <_>
          <internalNodes>
            0 -1 11 2.2809219080954790e-03</internalNodes>
          <leafValues>
            7.0940077304840088e-02 -6.7003363370895386e-01</leafValues></_>
        <_>
          <internalNodes>
            0 -1 38 1.1358392424881458e-02</internalNodes>
          <leafValues>
            -2.9852780699729919e-01 1.5598638355731964e-01</leafValues></_></weakClassifiers></_>
    <!-- stage 5 -->
    <_>
      <maxWeakCount>24</maxWeakCount>
      <stageThreshold>-1.2046698331832886e+00</stageThreshold>
      <weakClassifiers>
        <_>
          <internalNodes>
            0 -1 53 2.5248069316148758e-02</internalNodes>
          <leafValues>
            -2.8245612978935242e-01 7.1075266599655151e-01</leafValues></_>
        <_>
          <internalNodes>
            0 -1 510 -1.9620254635810852e-02</internalNodes>
          <leafValues>
            5.1447492837905884e-01 -3.6075532436370850e-01</leafValues></_>
        <_>
          <internalNodes>
            0 -1 376 -1.5289714559912682e-02</internalNodes>
          <leafValues>
            4.5720818638801575e-01 -3.0647641420364380e-01</leafValues></_>
        <_>
          <internalNodes>
            0 -1 137 9.9913924932479858e-02</internalNodes>
          <leafValues>
            -3.5770878195762634e-01 3.2901611924171448e-01</leafValues></_>
        <_>
          <internalNodes>
            0 -1 150 8.2505196332931519e-03</internalNodes>
          <leafValues>
            -2.2009682655334473e-01 4.8310229182243347e-01</leafValues></_>
        <_>
          <internalNodes>
            0 -1 348 -1.9598333165049553e-03</internalNodes>
          <leafValues>
            2.8891542553901672e-01 -3.0219313502311707e-01</leafValues></_>
        <_>
          <internalNodes>
            0 -1 415 -1.9884118810296059e-03</internalNodes>
          <leafValues>
            4.0104097127914429e-01 -2.3552259802818298e-01</leafValues></_>
        <_>
          <internalNodes>
            0 -1 134 -2.2408422082662582e-03</internalNodes>
          <leafValues>
            -5.7146894931793213e-01 1.2754115462303162e-01</leafValues></_>
        <_>
          <internalNodes>
            0 -1 561 1.7947291489690542e-03</internalNodes>
          <leafValues>
            -2.0391397178173065e-01 3.3366438746452332e-01</leafValues></_>
        <_>
          <internalNodes>
            0 -1 616 5.3364282939583063e-04</internalNodes>
          <leafValues>
            1.6640245914459229e-01 -3.7495115399360657e-01</leafValues></_>
        <_>
          <internalNodes>
            0 -1 212 -2.4825260043144226e-03</internalNodes>
          <leafValues>
            3.2302013039588928e-01 -1.8075801432132721e-01</leafValues></_>
        <_>
          <internalNodes>
            0 -1 181 -1.1112127453088760e-02</internalNodes>
          <leafValues>
            4.6418279409408569e-01 -1.3033215701580048e-01</leafValues></_>
        <_>
          <internalNodes>
            0 -1 2 -1.8490925431251526e-03</internalNodes>
          <leafValues>
            -4.7240212559700012e-01 1.4686067402362823e-01</leafValues></_>
        <_>
          <internalNodes>
            0 -1 330 8.2071702927350998e-03</internalNodes>
          <leafValues>
            -1.3971559703350067e-01 3.8353127241134644e-01</leafValues></_>
        <_>
          <internalNodes>
            0 -1 301 -4.8723467625677586e-03</internalNodes>
          <leafValues>
            3.4680497646331787e-01 -1.6503933072090149e-01</leafValues></_>
        <_>
          <internalNodes>
            0 -1 406 6.7029530182480812e-03</internalNodes>
          <leafValues>
            -2.8026646375656128e-01 1.9553849101066589e-01</leafValues></_>
        <_>
          <internalNodes>
            0 -1 603 1.0186750441789627e-03</internalNodes>
          <leafValues>
            1.3394367694854736e-01 -4.3249633908271790e-01</leafValues></_>
        <_>
          <internalNodes>
            0 -1 426 -2.3787226527929306e-02</internalNodes>
          <leafValues>
            5.5580985546112061e-01 -9.2677824199199677e-02</leafValues></_>
        <_>
          <internalNodes>
            0 -1 19 -9.1687322128564119e-04</internalNodes>
          <leafValues>
            -4.3571603298187256e-01 1.1953047662973404e-01</leafValues></_>
        <_>
          <internalNodes>
            0 -1 442 -2.1403842765721492e-05</internalNodes>
          <leafValues>
            2.7730146050453186e-01 -1.9806979596614838e-01</leafValues></_>
        <_>
          <internalNodes>
            0 -1 371 6.9828156847506762e-04</internalNodes>
          <leafValues>
            -1.5565076470375061e-01 3.2078617811203003e-01</leafValues></_>
        <_>
          <internalNodes>
            0 -1 292 -1.4714328572154045e-03</internalNodes>
          <leafValues>
            -5.3090190887451172e-01 1.0489495843648911e-01</leafValues></_>
        <_>
          <internalNodes>
            0 -1 341 4.3793488293886185e-04</internalNodes>
          <leafValues>
            -2.4224244058132172e-01 2.1690574288368225e-01</leafValues></_>
        <_>
          <internalNodes>
            0 -1 45 6.3090607523918152e-02</internalNodes>
          <leafValues>
            -1.0340289771556854e-01 4.9696317315101624e-01</leafValues></_></weakClassifiers></_>
    <!-- stage 6 -->
    <_>
      <maxWeakCount>26</maxWeakCount>
      <stageThreshold>-9.9400025606155396e-01</stageThreshold>
      <weakClassifiers>
        <_>
          <internalNodes>
            0 -1 57 1.7094887793064117e-01</internalNodes>
          <leafValues>
            -1.5902140736579895e-01 7.1394801139831543e-01</leafValues></_>
        <_>
          <internalNodes>
            0 -1 180 1.3985620439052582e-01</internalNodes>
          <leafValues>
            -2.8435692191123962e-01 4.2974391579627991e-01</leafValues></_>
        <_>
          <internalNodes>
            0 -1 255 -3.5415696911513805e-03</internalNodes>
          <leafValues>
            3.5736280679702759e-01 -3.1790336966514587e-01</leafValues></_>
        <_>
          <internalNodes>
            0 -1 562 5.5547337979078293e-03</internalNodes>
          <leafValues>
            -1.8680723011493683e-01 4.6975511312484741e-01</leafValues></_>
        <_>
          <internalNodes>
            0 -1 455 1.6650162637233734e-02</internalNodes>
          <leafValues>
            -1.2793275713920593e-01 6.6525900363922119e-01</leafValues></_>
        <_>
          <internalNodes>
            0 -1 322 1.2686729431152344e-02</internalNodes>
          <leafValues>
            -1.5692867338657379e-01 4.6720877289772034e-01</leafValues></_>
        <_>
          <internalNodes>
            0 -1 546 -9.8138477187603712e-04</internalNodes>
          <leafValues>
            -4.2541834712028503e-01 1.6583335399627686e-01</leafValues></_>
        <_>
          <internalNodes>
            0 -1 572 -7.9646299127489328e-04</internalNodes>
          <leafValues>
            -4.4803392887115479e-01 1.7184643447399139e-01</leafValues></_>
        <_>
          <internalNodes>
            0 -1 206 -1.2828351929783821e-02</internalNodes>
          <leafValues>
            -5.1541399955749512e-01 9.5044679939746857e-02</leafValues></_>
        <_>
          <internalNodes>
            0 -1 424 2.0326717640273273e-04</internalNodes>
          <leafValues>
            -2.2051797807216644e-01 2.4225534498691559e-01</leafValues></_>
        <_>
          <internalNodes>
            0 -1 25 2.0767696201801300e-02</internalNodes>
          <leafValues>
            -2.9970324039459229e-01 1.7720447480678558e-01</leafValues></_>
        <_>
          <internalNodes>
            0 -1 28 -2.0597474649548531e-03</internalNodes>
          <leafValues>
            -3.9804017543792725e-01 1.3161657750606537e-01</leafValues></_>
        <_>
          <internalNodes>
            0 -1 369 8.0245986580848694e-02</internalNodes>
          <leafValues>
            6.0214474797248840e-02 -8.3590728044509888e-01</leafValues></_>
        <_>
          <internalNodes>
            0 -1 486 4.8642558977007866e-03</internalNodes>
          <leafValues>
            -1.6623832285404205e-01 3.3590295910835266e-01</leafValues></_>
        <_>
          <internalNodes>
            0 -1 469 -9.9581032991409302e-03</internalNodes>
          <leafValues>
            5.9311258792877197e-01 -1.0191137343645096e-01</leafValues></_>
        <_>
          <internalNodes>
            0 -1 431 -4.6827917685732245e-04</internalNodes>
          <leafValues>
            -3.5791397094726563e-01 1.7307676374912262e-01</leafValues></_>
        <_>
          <internalNodes>
            0 -1 645 -1.8763800617307425e-03</internalNodes>
          <leafValues>
            -4.5852208137512207e-01 9.8109498620033264e-02</leafValues></_>
        <_>
          <internalNodes>
            0 -1 319 -6.3790739513933659e-03</internalNodes>
          <leafValues>
            4.3422234058380127e-01 -1.1494797468185425e-01</leafValues></_>
        <_>
          <internalNodes>
            0 -1 190 1.6457973048090935e-02</internalNodes>
          <leafValues>
            -3.3219209313392639e-01 1.3886085152626038e-01</leafValues></_>
        <_>
          <internalNodes>
            0 -1 397 2.7402153238654137e-02</internalNodes>
          <leafValues>
            5.4559703916311264e-02 -7.7960389852523804e-01</leafValues></_>
        <_>
          <internalNodes>
            0 -1 602 -5.0061559304594994e-03</internalNodes>
          <leafValues>
            -3.9794358611106873e-01 1.1190494149923325e-01</leafValues></_>
        <_>
          <internalNodes>
            0 -1 92 5.7233090046793222e-04</internalNodes>
          <leafValues>
            1.2063670158386230e-01 -3.5230433940887451e-01</leafValues></_>
        <_>
          <internalNodes>
            0 -1 177 -2.9029972851276398e-02</internalNodes>
          <leafValues>
            -4.3696385622024536e-01 1.0735400766134262e-01</leafValues></_>
        <_>
          <internalNodes>
            0 -1 391 -1.7467801226302981e-03</internalNodes>
          <leafValues>
            2.6002696156501770e-01 -1.9036926329135895e-01</leafValues></_>
        <_>
          <internalNodes>
            0 -1 68 -3.7941844202578068e-03</internalNodes>
          <leafValues>
            -3.7054944038391113e-01 1.2809996306896210e-01</leafValues></_>
        <_>
          <internalNodes>
            0 -1 213 -2.7364445486455224e-05</internalNodes>
          <leafValues>
            2.3265828192234039e-01 -1.8881914019584656e-01</leafValues></_></weakClassifiers></_>
    <!-- stage 7 -->
    <_>
      <maxWeakCount>32</maxWeakCount>
      <stageThreshold>-1.0414053201675415e+00</stageThreshold>
      <weakClassifiers>
        <_>
          <internalNodes>
            0 -1 77 4.6997204422950745e-02</internalNodes>
          <leafValues>
            -1.8128654360771179e-01 6.0081052780151367e-01</leafValues></_>
        <_>
          <internalNodes>
            0 -1 525 5.5570392869412899e-03</internalNodes>
          <leafValues>
            -1.5128238499164581e-01 6.2605518102645874e-01</leafValues></_>
        <_>
          <internalNodes>
            0 -1 242 -1.1468915268778801e-02</internalNodes>
          <leafValues>
            5.4092341661453247e-01 -1.7033602297306061e-01</leafValues></_>
        <_>
          <internalNodes>
            0 -1 30 2.4527464993298054e-03</internalNodes>
          <leafValues>
            -4.8773074150085449e-01 1.4638333022594452e-01</leafValues></_>
        <_>
          <internalNodes>
            0 -1 530 -5.7516344822943211e-03</internalNodes>
          <leafValues>
            4.2793223261833191e-01 -1.5144820511341095e-01</leafValues></_>
        <_>
          <internalNodes>
            0 -1 21 -4.7116939094848931e-04</internalNodes>
          <leafValues>
            -4.1622322797775269e-01 1.6277471184730530e-01</leafValues></_>
        <_>
          <internalNodes>
            0 -1 21 2.6806283858604729e-04</internalNodes>
          <leafValues>
            1.7115661501884460e-01 -3.7752497196197510e-01</leafValues></_>
        <_>
          <internalNodes>
            0 -1 388 3.6613510455936193e-03</internalNodes>
          <leafValues>
            -3.3404093980789185e-01 1.6911788284778595e-01</leafValues></_>
        <_>
          <internalNodes>
            0 -1 170 2.1033953130245209e-01</internalNodes>
          <leafValues>
            -1.1438363790512085e-01 4.5597353577613831e-01</leafValues></_>
        <_>
          <internalNodes>
            0 -1 627 -7.4712419882416725e-04</internalNodes>
          <leafValues>
            -3.3042076230049133e-01 1.4250095188617706e-01</leafValues></_>
        <_>
          <internalNodes>
            0 -1 114 1.5722077339887619e-02</internalNodes>
          <leafValues>
            -7.3331050574779510e-02 6.4343410730361938e-01</leafValues></_>
        <_>
          <internalNodes>
            0 -1 624 9.8171923309564590e-04</internalNodes>
          <leafValues>
            1.4610075950622559e-01 -3.3590355515480042e-01</leafValues></_>
        <_>
          <internalNodes>
            0 -1 474 1.0540696093812585e-03</internalNodes>
          <leafValues>
            -2.3350425064563751e-01 2.2765725851058960e-01</leafValues></_>
        <_>
          <internalNodes>
            0 -1 623 -2.7564063202589750e-04</internalNodes>
          <leafValues>
            -3.3317041397094727e-01 1.7682522535324097e-01</leafValues></_>
        <_>
          <internalNodes>
            0 -1 217 -1.3950548134744167e-02</internalNodes>
          <leafValues>
            -5.9128338098526001e-01 7.7333375811576843e-02</leafValues></_>
        <_>
          <internalNodes>
            0 -1 490 3.4008366055786610e-03</internalNodes>
          <leafValues>
            -1.1118616163730621e-01 4.1178625822067261e-01</leafValues></_>
        <_>
          <internalNodes>
            0 -1 274 3.1939223408699036e-02</internalNodes>
          <leafValues>
            8.1496275961399078e-02 -5.7705134153366089e-01</leafValues></_>
        <_>
          <internalNodes>
            0 -1 343 3.3011352643370628e-03</internalNodes>
          <leafValues>
            -1.2078697234392166e-01 3.8607400655746460e-01</leafValues></_>
        <_>
          <internalNodes>
            0 -1 252 -4.7357417643070221e-02</internalNodes>
          <leafValues>
            -7.5855332612991333e-01 6.5733484923839569e-02</leafValues></_>
        <_>
          <internalNodes>
            0 -1 69 -1.4208664651960135e-03</internalNodes>
          <leafValues>
            -3.7104591727256775e-01 1.0415056347846985e-01</leafValues></_>
        <_>
          <internalNodes>
            0 -1 444 1.4366152463480830e-03</internalNodes>
          <leafValues>
            -1.1585696041584015e-01 3.5217672586441040e-01</leafValues></_>
        <_>
          <internalNodes>
            0 -1 450 -2.4859849363565445e-03</internalNodes>
          <leafValues>
            3.9108553528785706e-01 -1.0425653308629990e-01</leafValues></_>
        <_>
          <internalNodes>
            0 -1 227 -1.9103180617094040e-02</internalNodes>
          <leafValues>
            -5.1381248235702515e-01 8.2909189164638519e-02</leafValues></_>
        <_>
          <internalNodes>
            0 -1 31 9.9669769406318665e-04</internalNodes>
          <leafValues>
            1.1871027201414108e-01 -3.4516522288322449e-01</leafValues></_>
        <_>
          <internalNodes>
            0 -1 208 -2.2484110668301582e-03</internalNodes>
          <leafValues>
            1.2906280159950256e-01 -3.1513792276382446e-01</leafValues></_>
        <_>
          <internalNodes>
            0 -1 506 -8.7848701514303684e-04</internalNodes>
          <leafValues>
            -3.1165871024131775e-01 1.2804034352302551e-01</leafValues></_>
        <_>
          <internalNodes>
            0 -1 329 -2.4231960996985435e-03</internalNodes>
          <leafValues>
            2.7672463655471802e-01 -1.5249969065189362e-01</leafValues></_>
        <_>
          <internalNodes>
            0 -1 272 3.1069092452526093e-02</internalNodes>
          <leafValues>
            -6.9313660264015198e-02 6.8272691965103149e-01</leafValues></_>
        <_>
          <internalNodes>
            0 -1 503 -4.2149712680839002e-04</internalNodes>
          <leafValues>
            -2.9996988177299500e-01 1.5296386182308197e-01</leafValues></_>
        <_>
          <internalNodes>
            0 -1 387 9.4417430460453033e-02</internalNodes>
          <leafValues>
            4.2083993554115295e-02 -8.9603489637374878e-01</leafValues></_>
        <_>
          <internalNodes>
            0 -1 250 -3.4525830298662186e-02</internalNodes>
          <leafValues>
            -5.8367878198623657e-01 5.6137636303901672e-02</leafValues></_>
        <_>
          <internalNodes>
            0 -1 469 -5.1353867165744305e-03</internalNodes>
          <leafValues>
            3.3503693342208862e-01 -1.3067884743213654e-01</leafValues></_></weakClassifiers></_>
    <!-- stage 8 -->
    <_>
      <maxWeakCount>30</maxWeakCount>
      <stageThreshold>-1.1135321855545044e+00</stageThreshold>
      <weakClassifiers>
        <_>
          <internalNodes>
            0 -1 294 -5.9599425643682480e-02</internalNodes>
          <leafValues>
            6.0742974281311035e-01 -2.0833332836627960e-01</leafValues></_>
        <_>
          <internalNodes>
            0 -1 147 1.3446275144815445e-02</internalNodes>
          <leafValues>
            -3.3467742800712585e-01 4.9623748660087585e-01</leafValues></_>
        <_>
          <internalNodes>
            0 -1 529 9.0436823666095734e-04</internalNodes>
          <leafValues>
            -2.7081334590911865e-01 4.4534346461296082e-01</leafValues></_>
        <_>
          <internalNodes>
            0 -1 405 -8.1800473853945732e-03</internalNodes>
          <leafValues>
            2.2821559011936188e-01 -4.7803297638893127e-01</leafValues></_>
        <_>
          <internalNodes>
            0 -1 426 -1.3488288968801498e-02</internalNodes>
          <leafValues>
            4.1064104437828064e-01 -1.8704198300838470e-01</leafValues></_>
        <_>
          <internalNodes>
            0 -1 176 3.6912669893354177e-03</internalNodes>
          <leafValues>
            -3.7921807169914246e-01 1.8157826364040375e-01</leafValues></_>
        <_>
          <internalNodes>
            0 -1 247 2.1467050537467003e-03</internalNodes>
          <leafValues>
            -2.4769979715347290e-01 3.3167478442192078e-01</leafValues></_>
        <_>
          <internalNodes>
            0 -1 532 2.6747032999992371e-02</internalNodes>
          <leafValues>
            -6.6133335232734680e-02 6.8287456035614014e-01</leafValues></_>
        <_>
          <internalNodes>
            0 -1 321 5.9909317642450333e-03</internalNodes>
          <leafValues>
            -1.7328704893589020e-01 3.6446937918663025e-01</leafValues></_>
        <_>
          <internalNodes>
            0 -1 49 -6.6098023671656847e-04</internalNodes>
          <leafValues>
            -4.2077988386154175e-01 1.2747909128665924e-01</leafValues></_>
        <_>
          <internalNodes>
            0 -1 439 7.4648670852184296e-03</internalNodes>
          <leafValues>
            -7.5196497142314911e-02 6.1488825082778931e-01</leafValues></_>
        <_>
          <internalNodes>
            0 -1 439 -2.6646521873772144e-03</internalNodes>
          <leafValues>
            4.0250477194786072e-01 -1.4730909466743469e-01</leafValues></_>
        <_>
          <internalNodes>
            0 -1 630 1.6904356889426708e-03</internalNodes>
          <leafValues>
            1.3254341483116150e-01 -3.7805289030075073e-01</leafValues></_>
        <_>
          <internalNodes>
            0 -1 119 -8.4269954822957516e-04</internalNodes>
          <leafValues>
            1.6602276265621185e-01 -2.6500472426414490e-01</leafValues></_>
        <_>
          <internalNodes>
            0 -1 470 -6.3202949240803719e-03</internalNodes>
          <leafValues>
            4.8347198963165283e-01 -8.3348982036113739e-02</leafValues></_>
        <_>
          <internalNodes>
            0 -1 601 -2.0544312428683043e-03</internalNodes>
          <leafValues>
            -2.9725724458694458e-01 1.4181861281394958e-01</leafValues></_>
        <_>
          <internalNodes>
            0 -1 74 -3.9630383253097534e-03</internalNodes>
          <leafValues>
            -3.1891223788261414e-01 1.2524777650833130e-01</leafValues></_>
        <_>
          <internalNodes>
            0 -1 303 3.3847275190055370e-03</internalNodes>
          <leafValues>
            -8.8041745126247406e-02 4.8714342713356018e-01</leafValues></_>
        <_>
          <internalNodes>
            0 -1 500 -2.3919986560940742e-03</internalNodes>
          <leafValues>
            3.4687766432762146e-01 -1.1425546556711197e-01</leafValues></_>
        <_>
          <internalNodes>
            0 -1 71 1.7119456082582474e-02</internalNodes>
          <leafValues>
            -2.7990335226058960e-01 1.5020783245563507e-01</leafValues></_>
        <_>
          <internalNodes>
            0 -1 151 2.7741838712245226e-03</internalNodes>
          <leafValues>
            2.4049192667007446e-01 -1.8545311689376831e-01</leafValues></_>
        <_>
          <internalNodes>
            0 -1 418 -1.3501320034265518e-02</internalNodes>
          <leafValues>
            -3.7109372019767761e-01 1.2449940294027328e-01</leafValues></_>
        <_>
          <internalNodes>
            0 -1 361 -2.9961757827550173e-03</internalNodes>
          <leafValues>
            -4.0341690182685852e-01 9.2187136411666870e-02</leafValues></_>
        <_>
          <internalNodes>
            0 -1 109 -1.3342779129743576e-02</internalNodes>
          <leafValues>
            5.0110971927642822e-01 -7.7738687396049500e-02</leafValues></_>
        <_>
          <internalNodes>
            0 -1 157 1.0395020944997668e-03</internalNodes>
          <leafValues>
            -1.5398441255092621e-01 2.7715656161308289e-01</leafValues></_>
        <_>
          <internalNodes>
            0 -1 637 -1.6085216775536537e-03</internalNodes>
          <leafValues>
            -3.0740711092948914e-01 1.1803830415010452e-01</leafValues></_>
        <_>
          <internalNodes>
            0 -1 537 -2.6536653749644756e-03</internalNodes>
          <leafValues>
            2.2941280901432037e-01 -1.6009956598281860e-01</leafValues></_>
        <_>
          <internalNodes>
            0 -1 527 2.1923605818301439e-03</internalNodes>
          <leafValues>
            -1.4806748926639557e-01 2.4371692538261414e-01</leafValues></_>
        <_>
          <internalNodes>
            0 -1 460 7.2002923116087914e-04</internalNodes>
          <leafValues>
            -1.5564782917499542e-01 2.5333008170127869e-01</leafValues></_>
        <_>
          <internalNodes>
            0 -1 461 -2.7631730772554874e-03</internalNodes>
          <leafValues>
            3.7666016817092896e-01 -1.2323558330535889e-01</leafValues></_></weakClassifiers></_>
    <!-- stage 9 -->
    <_>
      <maxWeakCount>40</maxWeakCount>
      <stageThreshold>-1.0805733203887939e+00</stageThreshold>
      <weakClassifiers>
        <_>
          <internalNodes>
            0 -1 147 2.9065176844596863e-02</internalNodes>
          <leafValues>
            6.0043666511774063e-02 7.6198631525039673e-01</leafValues></_>
        <_>
          <internalNodes>
            0 -1 95 1.4492025598883629e-02</internalNodes>
          <leafValues>
            -3.3564120531082153e-01 3.3889245986938477e-01</leafValues></_>
        <_>
          <internalNodes>
            0 -1 562 6.7613427527248859e-03</internalNodes>
          <leafValues>
            -1.8216228485107422e-01 5.1510256528854370e-01</leafValues></_>
        <_>
          <internalNodes>
            0 -1 394 3.1665578484535217e-02</internalNodes>
          <leafValues>
            -1.9128812849521637e-01 4.6110597252845764e-01</leafValues></_>
        <_>
          <internalNodes>
            0 -1 535 7.0395530201494694e-04</internalNodes>
          <leafValues>
            -1.9229985773563385e-01 3.2151779532432556e-01</leafValues></_>
        <_>
          <internalNodes>
            0 -1 305 4.5570455491542816e-02</internalNodes>
          <leafValues>
            7.1825839579105377e-02 -8.1894540786743164e-01</leafValues></_>
        <_>
          <internalNodes>
            0 -1 401 -1.6258119139820337e-03</internalNodes>
          <leafValues>
            4.5662930607795715e-01 -1.2837304174900055e-01</leafValues></_>
        <_>
          <internalNodes>
            0 -1 382 -5.0032269209623337e-03</internalNodes>
          <leafValues>
            5.1283580064773560e-01 -9.1185785830020905e-02</leafValues></_>
        <_>
          <internalNodes>
            0 -1 480 -3.5217427648603916e-04</internalNodes>
          <leafValues>
            2.6913848519325256e-01 -1.9558864831924438e-01</leafValues></_>
        <_>
          <internalNodes>
            0 -1 390 1.0043937945738435e-03</internalNodes>
          <leafValues>
            -1.4189042150974274e-01 3.7468856573104858e-01</leafValues></_>
        <_>
          <internalNodes>
            0 -1 232 -1.5697837807238102e-03</internalNodes>
          <leafValues>
            -4.0035608410835266e-01 1.3369923830032349e-01</leafValues></_>
        <_>
          <internalNodes>
            0 -1 110 2.2011134773492813e-02</internalNodes>
          <leafValues>
            -1.1973972618579865e-01 4.6166023612022400e-01</leafValues></_>
        <_>
          <internalNodes>
            0 -1 196 4.2246185243129730e-02</internalNodes>
          <leafValues>
            8.8044896721839905e-02 -6.3229084014892578e-01</leafValues></_>
        <_>
          <internalNodes>
            0 -1 552 7.2836922481656075e-03</internalNodes>
          <leafValues>
            -1.0980959236621857e-01 4.2660036683082581e-01</leafValues></_>
        <_>
          <internalNodes>
            0 -1 280 3.5955347120761871e-03</internalNodes>
          <leafValues>
            -9.2958308756351471e-02 4.4158700108528137e-01</leafValues></_>
        <_>
          <internalNodes>
            0 -1 168 1.4920553658157587e-03</internalNodes>
          <leafValues>
            1.3248009979724884e-01 -3.3430999517440796e-01</leafValues></_>
        <_>
          <internalNodes>
            0 -1 148 -1.3190786354243755e-02</internalNodes>
          <leafValues>
            -4.3272125720977783e-01 9.2388145625591278e-02</leafValues></_>
        <_>
          <internalNodes>
            0 -1 203 7.2005284018814564e-03</internalNodes>
          <leafValues>
            1.7814366519451141e-01 -2.8569093346595764e-01</leafValues></_>
        <_>
          <internalNodes>
            0 -1 0 -4.6612852020189166e-04</internalNodes>
          <leafValues>
            -3.2637542486190796e-01 1.2257014960050583e-01</leafValues></_>
        <_>
          <internalNodes>
            0 -1 459 -2.5495840236544609e-03</internalNodes>
          <leafValues>
            4.2107477784156799e-01 -1.0107825696468353e-01</leafValues></_>
        <_>
          <internalNodes>
            0 -1 439 5.0148265436291695e-03</internalNodes>
          <leafValues>
            -8.1573374569416046e-02 4.8943832516670227e-01</leafValues></_>
        <_>
          <internalNodes>
            0 -1 425 2.7296594344079494e-03</internalNodes>
          <leafValues>
            -1.4204163849353790e-01 2.6594746112823486e-01</leafValues></_>
        <_>
          <internalNodes>
            0 -1 610 -2.0340490154922009e-03</internalNodes>
          <leafValues>
            -3.8424631953239441e-01 1.1105125397443771e-01</leafValues></_>
        <_>
          <internalNodes>
            0 -1 404 1.8436978571116924e-03</internalNodes>
          <leafValues>
            7.6524674892425537e-02 -4.7960722446441650e-01</leafValues></_>
        <_>
          <internalNodes>
            0 -1 142 6.7369139287620783e-04</internalNodes>
          <leafValues>
            1.0714016854763031e-01 -3.0503445863723755e-01</leafValues></_>
        <_>
          <internalNodes>
            0 -1 165 -4.2422963306307793e-03</internalNodes>
          <leafValues>
            -2.7432692050933838e-01 1.2864893674850464e-01</leafValues></_>
        <_>
          <internalNodes>
            0 -1 315 -2.2223912310437299e-05</internalNodes>
          <leafValues>
            1.7125084996223450e-01 -1.8830201029777527e-01</leafValues></_>
        <_>
          <internalNodes>
            0 -1 320 1.4828462153673172e-03</internalNodes>
          <leafValues>
            -1.7431822419166565e-01 2.2116792201995850e-01</leafValues></_>
        <_>
          <internalNodes>
            0 -1 389 2.4340050294995308e-03</internalNodes>
          <leafValues>
            -7.6719693839550018e-02 4.5542752742767334e-01</leafValues></_>
        <_>
          <internalNodes>
            0 -1 378 4.8326682299375534e-02</internalNodes>
          <leafValues>
            5.7168330997228622e-02 -6.6622966527938843e-01</leafValues></_>
        <_>
          <internalNodes>
            0 -1 447 -2.5966446846723557e-02</internalNodes>
          <leafValues>
            -8.2776975631713867e-01 3.1225763261318207e-02</leafValues></_>
        <_>
          <internalNodes>
            0 -1 643 -6.2276836251839995e-04</internalNodes>
          <leafValues>
            -2.6506811380386353e-01 1.2157281488180161e-01</leafValues></_>
        <_>
          <internalNodes>
            0 -1 131 1.6077291965484619e-01</internalNodes>
          <leafValues>
            4.4849760830402374e-02 -7.7312308549880981e-01</leafValues></_>
        <_>
          <internalNodes>
            0 -1 222 -4.3504140339791775e-03</internalNodes>
          <leafValues>
            4.7357112169265747e-01 -7.5128018856048584e-02</leafValues></_>
        <_>
          <internalNodes>
            0 -1 105 1.3195088133215904e-02</internalNodes>
          <leafValues>
            -2.4071647226810455e-01 1.3954338431358337e-01</leafValues></_>
        <_>
          <internalNodes>
            0 -1 129 -2.2740187123417854e-03</internalNodes>
          <leafValues>
            -4.5276588201522827e-01 7.3147498071193695e-02</leafValues></_>
        <_>
          <internalNodes>
            0 -1 579 5.1026917062699795e-03</internalNodes>
          <leafValues>
            -6.7972391843795776e-02 5.0184261798858643e-01</leafValues></_>
        <_>
          <internalNodes>
            0 -1 17 -4.8681709449738264e-04</internalNodes>
          <leafValues>
            -2.6671692728996277e-01 1.3255637884140015e-01</leafValues></_>
        <_>
          <internalNodes>
            0 -1 202 -1.0289477650076151e-03</internalNodes>
          <leafValues>
            2.4868129193782806e-01 -1.3245341181755066e-01</leafValues></_>
        <_>
          <internalNodes>
            0 -1 221 -1.9505960866808891e-02</internalNodes>
          <leafValues>
            -4.0189212560653687e-01 9.9693223834037781e-02</leafValues></_></weakClassifiers></_>
    <!-- stage 10 -->
    <_>
      <maxWeakCount>46</maxWeakCount>
      <stageThreshold>-1.0847246646881104e+00</stageThreshold>
      <weakClassifiers>
        <_>
          <internalNodes>
            0 -1 184 1.2691265344619751e-01</internalNodes>
          <leafValues>
            -3.5392090678215027e-02 6.7415010929107666e-01</leafValues></_>
        <_>
          <internalNodes>
            0 -1 377 -1.0134044103324413e-02</internalNodes>
          <leafValues>
            3.1622812151908875e-01 -3.9290663599967957e-01</leafValues></_>
        <_>
          <internalNodes>
            0 -1 146 2.2635286673903465e-02</internalNodes>
          <leafValues>
            -1.9369047880172729e-01 4.9857407808303833e-01</leafValues></_>
        <_>
          <internalNodes>
            0 -1 578 -1.1696636676788330e-02</internalNodes>
          <leafValues>
            4.3482244014739990e-01 -1.5875150263309479e-01</leafValues></_>
        <_>
          <internalNodes>
            0 -1 538 1.1721604969352484e-03</internalNodes>
          <leafValues>
            -2.1593147516250610e-01 2.9989662766456604e-01</leafValues></_>
        <_>
          <internalNodes>
            0 -1 125 -4.5339018106460571e-03</internalNodes>
          <leafValues>
            2.8472405672073364e-01 -1.8730250000953674e-01</leafValues></_>
        <_>
          <internalNodes>
            0 -1 14 2.6812680065631866e-02</internalNodes>
          <leafValues>
            -2.8452637791633606e-01 1.7057098448276520e-01</leafValues></_>
        <_>
          <internalNodes>
            0 -1 466 -3.9677573367953300e-03</internalNodes>
          <leafValues>
            2.1713013947010040e-01 -1.9784900546073914e-01</leafValues></_>
        <_>
          <internalNodes>
            0 -1 551 -8.6740218102931976e-04</internalNodes>
          <leafValues>
            -3.4400030970573425e-01 1.0818869620561600e-01</leafValues></_>
        <_>
          <internalNodes>
            0 -1 124 -3.8017651531845331e-03</internalNodes>
          <leafValues>
            2.7294352650642395e-01 -1.3361772894859314e-01</leafValues></_>
        <_>
          <internalNodes>
            0 -1 439 -4.4456301257014275e-03</internalNodes>
          <leafValues>
            3.7049907445907593e-01 -9.5335729420185089e-02</leafValues></_>
        <_>
          <internalNodes>
            0 -1 444 1.1932556517422199e-03</internalNodes>
          <leafValues>
            -1.3455714285373688e-01 3.4255903959274292e-01</leafValues></_>
        <_>
          <internalNodes>
            0 -1 78 -2.5527516845613718e-03</internalNodes>
          <leafValues>
            -3.8319295644760132e-01 1.0458804666996002e-01</leafValues></_>
        <_>
          <internalNodes>
            0 -1 75 -8.9103236794471741e-02</internalNodes>
          <leafValues>
            5.1838183403015137e-01 -6.8223111331462860e-02</leafValues></_>
        <_>
          <internalNodes>
            0 -1 181 -6.6316151060163975e-03</internalNodes>
          <leafValues>
            2.6018524169921875e-01 -1.3852341473102570e-01</leafValues></_>
        <_>
          <internalNodes>
            0 -1 257 -2.6581946760416031e-02</internalNodes>
          <leafValues>
            -8.3290964365005493e-01 3.9958193898200989e-02</leafValues></_>
        <_>
          <internalNodes>
            0 -1 222 -1.9416061695665121e-03</internalNodes>
          <leafValues>
            2.9531788825988770e-01 -1.2357151508331299e-01</leafValues></_>
        <_>
          <internalNodes>
            0 -1 93 1.2913497164845467e-02</internalNodes>
          <leafValues>
            7.4562415480613708e-02 -5.7427448034286499e-01</leafValues></_>
        <_>
          <internalNodes>
            0 -1 154 2.7882901486009359e-03</internalNodes>
          <leafValues>
            -1.5991471707820892e-01 2.0982429385185242e-01</leafValues></_>
        <_>
          <internalNodes>
            0 -1 399 -2.3200721479952335e-03</internalNodes>
          <leafValues>
            2.3581561446189880e-01 -1.4533193409442902e-01</leafValues></_>
        <_>
          <internalNodes>
            0 -1 230 2.2256709635257721e-03</internalNodes>
          <leafValues>
            1.0187941789627075e-01 -3.5419625043869019e-01</leafValues></_>
        <_>
          <internalNodes>
            0 -1 189 -2.7996379882097244e-02</internalNodes>
          <leafValues>
            -4.4308513402938843e-01 6.8209201097488403e-02</leafValues></_>
        <_>
          <internalNodes>
            0 -1 272 -2.4663037620484829e-03</internalNodes>
          <leafValues>
            1.9811360538005829e-01 -1.7518155276775360e-01</leafValues></_>
        <_>
          <internalNodes>
            0 -1 472 3.7066238000988960e-03</internalNodes>
          <leafValues>
            -1.3323891162872314e-01 3.1023344397544861e-01</leafValues></_>
        <_>
          <internalNodes>
            0 -1 314 2.5752814486622810e-02</internalNodes>
          <leafValues>
            6.8815819919109344e-02 -5.1510536670684814e-01</leafValues></_>
        <_>
          <internalNodes>
            0 -1 513 -8.5929373744875193e-04</internalNodes>
          <leafValues>
            2.4658353626728058e-01 -1.4758718013763428e-01</leafValues></_>
        <_>
          <internalNodes>
            0 -1 547 1.6034547006711364e-03</internalNodes>
          <leafValues>
            6.3934624195098877e-02 -5.3434926271438599e-01</leafValues></_>
        <_>
          <internalNodes>
            0 -1 437 -7.6633342541754246e-04</internalNodes>
          <leafValues>
            2.4889110028743744e-01 -1.3582484424114227e-01</leafValues></_>
        <_>
          <internalNodes>
            0 -1 416 2.3462850600481033e-02</internalNodes>
          <leafValues>
            4.9732480198144913e-02 -6.9964998960494995e-01</leafValues></_>
        <_>
          <internalNodes>
            0 -1 277 -2.5949757546186447e-03</internalNodes>
          <leafValues>
            2.2866237163543701e-01 -1.4722402393817902e-01</leafValues></_>
        <_>
          <internalNodes>
            0 -1 579 5.5626039393246174e-03</internalNodes>
          <leafValues>
            -6.0190446674823761e-02 5.1329863071441650e-01</leafValues></_>
        <_>
          <internalNodes>
            0 -1 504 -8.3348329644650221e-04</internalNodes>
          <leafValues>
            -3.2998210191726685e-01 1.0390782356262207e-01</leafValues></_>
        <_>
          <internalNodes>
            0 -1 531 3.0913137015886605e-04</internalNodes>
          <leafValues>
            -1.9657492637634277e-01 1.7570763826370239e-01</leafValues></_>
        <_>
          <internalNodes>
            0 -1 352 1.2325718998908997e-02</internalNodes>
          <leafValues>
            -1.7492233216762543e-01 1.8481516838073730e-01</leafValues></_>
        <_>
          <internalNodes>
            0 -1 612 2.4758552899584174e-04</internalNodes>
          <leafValues>
            -1.6376657783985138e-01 2.1144098043441772e-01</leafValues></_>
        <_>
          <internalNodes>
            0 -1 281 3.0981775373220444e-02</internalNodes>
          <leafValues>
            3.7019945681095123e-02 -1.</leafValues></_>
        <_>
          <internalNodes>
            0 -1 448 8.8092356920242310e-02</internalNodes>
          <leafValues>
            5.6099545210599899e-02 -4.8601111769676208e-01</leafValues></_>
        <_>
          <internalNodes>
            0 -1 379 4.3456736020743847e-03</internalNodes>
          <leafValues>
            -2.8017354011535645e-01 1.1980510503053665e-01</leafValues></_>
        <_>
          <internalNodes>
            0 -1 473 5.1932884380221367e-03</internalNodes>
          <leafValues>
            -1.4148008823394775e-01 2.6171636581420898e-01</leafValues></_>
        <_>
          <internalNodes>
            0 -1 185 1.5957921277731657e-03</internalNodes>
          <leafValues>
            8.4901027381420135e-02 -3.9343330264091492e-01</leafValues></_>
        <_>
          <internalNodes>
            0 -1 563 8.8198474259115756e-05</internalNodes>
          <leafValues>
            -1.5750403702259064e-01 2.1288563311100006e-01</leafValues></_>
        <_>
          <internalNodes>
            0 -1 285 -7.8726531937718391e-03</internalNodes>
          <leafValues>
            2.5267219543457031e-01 -1.3048890233039856e-01</leafValues></_>
        <_>
          <internalNodes>
            0 -1 629 2.0690187811851501e-03</internalNodes>
          <leafValues>
            6.4422912895679474e-02 -4.9569818377494812e-01</leafValues></_>
        <_>
          <internalNodes>
            0 -1 130 1.9761307165026665e-02</internalNodes>
          <leafValues>
            -1.5241220593452454e-01 2.1592862904071808e-01</leafValues></_>
        <_>
          <internalNodes>
            0 -1 334 -4.4278748333454132e-02</internalNodes>
          <leafValues>
            -7.9942023754119873e-01 3.5214491188526154e-02</leafValues></_>
        <_>
          <internalNodes>
            0 -1 20 -8.9778918772935867e-03</internalNodes>
          <leafValues>
            -6.3173788785934448e-01 4.1338577866554260e-02</leafValues></_></weakClassifiers></_>
    <!-- stage 11 -->
    <_>
      <maxWeakCount>40</maxWeakCount>
      <stageThreshold>-9.6308314800262451e-01</stageThreshold>
      <weakClassifiers>
        <_>
          <internalNodes>
            0 -1 56 2.6605594158172607e-01</internalNodes>
          <leafValues>
            -6.6760368645191193e-02 6.9435638189315796e-01</leafValues></_>
        <_>
          <internalNodes>
            0 -1 242 -7.5692981481552124e-03</internalNodes>
          <leafValues>
            4.7054886817932129e-01 -2.1018189191818237e-01</leafValues></_>
        <_>
          <internalNodes>
            0 -1 184 9.4121031463146210e-02</internalNodes>
          <leafValues>
            -3.3951222896575928e-01 2.7909946441650391e-01</leafValues></_>
        <_>
          <internalNodes>
            0 -1 532 3.0858572572469711e-02</internalNodes>
          <leafValues>
            -8.8015258312225342e-02 6.7060565948486328e-01</leafValues></_>
        <_>
          <internalNodes>
            0 -1 505 -3.7041328847408295e-02</internalNodes>
          <leafValues>
            2.7908846735954285e-01 -2.0900753140449524e-01</leafValues></_>
        <_>
          <internalNodes>
            0 -1 573 -5.4889800958335400e-04</internalNodes>
          <leafValues>
            -3.9275497198104858e-01 1.4103634655475616e-01</leafValues></_>
        <_>
          <internalNodes>
            0 -1 308 -4.8835435882210732e-04</internalNodes>
          <leafValues>
            2.1095648407936096e-01 -2.2283577919006348e-01</leafValues></_>
        <_>
          <internalNodes>
            0 -1 1 -4.8226321814581752e-04</internalNodes>
          <leafValues>
            -3.1853082776069641e-01 1.4141362905502319e-01</leafValues></_>
        <_>
          <internalNodes>
            0 -1 497 2.0041660172864795e-04</internalNodes>
          <leafValues>
            -2.0230962336063385e-01 2.1187704801559448e-01</leafValues></_>
        <_>
          <internalNodes>
            0 -1 371 -1.0162933031097054e-03</internalNodes>
          <leafValues>
            2.9136139154434204e-01 -1.2884129583835602e-01</leafValues></_>
        <_>
          <internalNodes>
            0 -1 172 -2.4077233683783561e-04</internalNodes>
          <leafValues>
            -2.5643569231033325e-01 1.5498626232147217e-01</leafValues></_>
        <_>
          <internalNodes>
            0 -1 489 4.5231659896671772e-03</internalNodes>
          <leafValues>
            -2.8243404626846313e-01 1.4006291329860687e-01</leafValues></_>
        <_>
          <internalNodes>
            0 -1 605 -7.8199000563472509e-04</internalNodes>
          <leafValues>
            -2.9300510883331299e-01 1.2649357318878174e-01</leafValues></_>
        <_>
          <internalNodes>
            0 -1 215 9.2025881167501211e-04</internalNodes>
          <leafValues>
            -1.7943090200424194e-01 2.1141108870506287e-01</leafValues></_>
        <_>
          <internalNodes>
            0 -1 476 1.8389016622677445e-03</internalNodes>
          <leafValues>
            -1.9656388461589813e-01 2.1964177489280701e-01</leafValues></_>
        <_>
          <internalNodes>
            0 -1 588 1.0257406393066049e-03</internalNodes>
          <leafValues>
            1.0397434979677200e-01 -3.8357383012771606e-01</leafValues></_>
        <_>
          <internalNodes>
            0 -1 111 -7.8586656600236893e-03</internalNodes>
          <leafValues>
            -5.0786030292510986e-01 7.3609888553619385e-02</leafValues></_>
        <_>
          <internalNodes>
            0 -1 161 2.2949697449803352e-03</internalNodes>
          <leafValues>
            -1.4740708470344543e-01 2.5706672668457031e-01</leafValues></_>
        <_>
          <internalNodes>
            0 -1 178 -4.3313011527061462e-02</internalNodes>
          <leafValues>
            -5.2825111150741577e-01 6.6171117126941681e-02</leafValues></_>
        <_>
          <internalNodes>
            0 -1 613 -6.1382458079606295e-04</internalNodes>
          <leafValues>
            -2.6520475745201111e-01 1.3311707973480225e-01</leafValues></_>
        <_>
          <internalNodes>
            0 -1 201 -2.5291267782449722e-02</internalNodes>
          <leafValues>
            4.6862044930458069e-01 -7.1524105966091156e-02</leafValues></_>
        <_>
          <internalNodes>
            0 -1 191 7.7051006257534027e-02</internalNodes>
          <leafValues>
            5.7962663471698761e-02 -6.2376236915588379e-01</leafValues></_>
        <_>
          <internalNodes>
            0 -1 621 -1.2088695075362921e-03</internalNodes>
          <leafValues>
            -4.3528509140014648e-01 7.9311802983283997e-02</leafValues></_>
        <_>
          <internalNodes>
            0 -1 622 2.2323629818856716e-03</internalNodes>
          <leafValues>
            6.6652297973632813e-02 -4.8990023136138916e-01</leafValues></_>
        <_>
          <internalNodes>
            0 -1 220 1.4636717736721039e-02</internalNodes>
          <leafValues>
            3.6618120968341827e-02 -8.3995926380157471e-01</leafValues></_>
        <_>
          <internalNodes>
            0 -1 291 -2.9138597892597318e-04</internalNodes>
          <leafValues>
            -2.4808043241500854e-01 1.2843583524227142e-01</leafValues></_>
        <_>
          <internalNodes>
            0 -1 371 1.8213922157883644e-03</internalNodes>
          <leafValues>
            -1.0270243883132935e-01 3.3943915367126465e-01</leafValues></_>
        <_>
          <internalNodes>
            0 -1 458 -1.9732747226953506e-02</internalNodes>
          <leafValues>
            -6.2056195735931396e-01 5.6149065494537354e-02</leafValues></_>
        <_>
          <internalNodes>
            0 -1 366 8.1500830128788948e-04</internalNodes>
          <leafValues>
            -1.3752038776874542e-01 2.6408219337463379e-01</leafValues></_>
        <_>
          <internalNodes>
            0 -1 40 -3.5947826690971851e-03</internalNodes>
          <leafValues>
            -5.1309472322463989e-01 7.4280776083469391e-02</leafValues></_>
        <_>
          <internalNodes>
            0 -1 43 -7.1297731483355165e-04</internalNodes>
          <leafValues>
            -3.7575802206993103e-01 9.7050517797470093e-02</leafValues></_>
        <_>
          <internalNodes>
            0 -1 508 1.3310497626662254e-02</internalNodes>
          <leafValues>
            -1.1116985231637955e-01 3.2056289911270142e-01</leafValues></_>
        <_>
          <internalNodes>
            0 -1 521 -1.9599277526140213e-02</internalNodes>
          <leafValues>
            2.6540762186050415e-01 -1.1959917843341827e-01</leafValues></_>
        <_>
          <internalNodes>
            0 -1 540 -2.2571422159671783e-03</internalNodes>
          <leafValues>
            2.7901771664619446e-01 -1.1056904494762421e-01</leafValues></_>
        <_>
          <internalNodes>
            0 -1 540 3.0161305330693722e-03</internalNodes>
          <leafValues>
            -1.0325320065021515e-01 3.4210076928138733e-01</leafValues></_>
        <_>
          <internalNodes>
            0 -1 231 -4.1098520159721375e-04</internalNodes>
          <leafValues>
            -2.3888066411018372e-01 1.3425338268280029e-01</leafValues></_>
        <_>
          <internalNodes>
            0 -1 132 -3.3636769512668252e-04</internalNodes>
          <leafValues>
            -2.1266961097717285e-01 1.4198055863380432e-01</leafValues></_>
        <_>
          <internalNodes>
            0 -1 273 2.5602689012885094e-02</internalNodes>
          <leafValues>
            5.9596654027700424e-02 -5.2178084850311279e-01</leafValues></_>
        <_>
          <internalNodes>
            0 -1 574 1.6056701540946960e-02</internalNodes>
          <leafValues>
            -1.2129718065261841e-01 3.1994444131851196e-01</leafValues></_>
        <_>
          <internalNodes>
            0 -1 342 3.6118831485509872e-02</internalNodes>
          <leafValues>
            -6.7638948559761047e-02 5.3958737850189209e-01</leafValues></_></weakClassifiers></_>
    <!-- stage 12 -->
    <_>
      <maxWeakCount>45</maxWeakCount>
      <stageThreshold>-9.6041703224182129e-01</stageThreshold>
      <weakClassifiers>
        <_>
          <internalNodes>
            0 -1 35 1.9680023193359375e-01</internalNodes>
          <leafValues>
            -2.6845637708902359e-02 6.8874174356460571e-01</leafValues></_>
        <_>
          <internalNodes>
            0 -1 180 1.8671628832817078e-01</internalNodes>
          <leafValues>
            -2.0888407528400421e-01 4.3335855007171631e-01</leafValues></_>
        <_>
          <internalNodes>
            0 -1 333 -3.0169311910867691e-02</internalNodes>
          <leafValues>
            6.0955333709716797e-01 -1.1193040013313293e-01</leafValues></_>
        <_>
          <internalNodes>
            0 -1 186 -1.2499658390879631e-02</internalNodes>
          <leafValues>
            3.7457802891731262e-01 -1.8405446410179138e-01</leafValues></_>
        <_>
          <internalNodes>
            0 -1 127 6.8826717324554920e-04</internalNodes>
          <leafValues>
            1.2344701588153839e-01 -3.7235480546951294e-01</leafValues></_>
        <_>
          <internalNodes>
            0 -1 420 1.9455927031231113e-05</internalNodes>
          <leafValues>
            -1.7209596931934357e-01 2.3060795664787292e-01</leafValues></_>
        <_>
          <internalNodes>
            0 -1 400 -2.3229878395795822e-02</internalNodes>
          <leafValues>
            5.3922277688980103e-01 -8.5142999887466431e-02</leafValues></_>
        <_>
          <internalNodes>
            0 -1 620 -1.2968953233212233e-03</internalNodes>
          <leafValues>
            -3.7742614746093750e-01 9.9446572363376617e-02</leafValues></_>
        <_>
          <internalNodes>
            0 -1 454 5.5601969361305237e-03</internalNodes>
          <leafValues>
            -1.1253716051578522e-01 3.2475927472114563e-01</leafValues></_>
        <_>
          <internalNodes>
            0 -1 218 2.8504076180979609e-04</internalNodes>
          <leafValues>
            -3.8908007740974426e-01 1.0213919728994370e-01</leafValues></_>
        <_>
          <internalNodes>
            0 -1 287 -3.4645735286176205e-03</internalNodes>
          <leafValues>
            3.0675211548805237e-01 -1.1590785533189774e-01</leafValues></_>
        <_>
          <internalNodes>
            0 -1 593 -1.1403991375118494e-03</internalNodes>
          <leafValues>
            -3.2023781538009644e-01 1.0350908339023590e-01</leafValues></_>
        <_>
          <internalNodes>
            0 -1 112 -2.2516764700412750e-02</internalNodes>
          <leafValues>
            -5.6376487016677856e-01 5.3278729319572449e-02</leafValues></_>
        <_>
          <internalNodes>
            0 -1 580 -2.9855510219931602e-03</internalNodes>
          <leafValues>
            2.4270875751972198e-01 -1.4286027848720551e-01</leafValues></_>
        <_>
          <internalNodes>
            0 -1 89 6.5828897058963776e-03</internalNodes>
          <leafValues>
            -1.4172403514385223e-01 2.6322522759437561e-01</leafValues></_>
        <_>
          <internalNodes>
            0 -1 128 -1.0344063630327582e-03</internalNodes>
          <leafValues>
            -2.8508394956588745e-01 1.1988548934459686e-01</leafValues></_>
        <_>
          <internalNodes>
            0 -1 169 -9.5108436653390527e-04</internalNodes>
          <leafValues>
            -3.2726204395294189e-01 1.0159268975257874e-01</leafValues></_>
        <_>
          <internalNodes>
            0 -1 378 4.4362366199493408e-02</internalNodes>
          <leafValues>
            4.8510167747735977e-02 -6.7171704769134521e-01</leafValues></_>
        <_>
          <internalNodes>
            0 -1 349 2.2273261492955498e-05</internalNodes>
          <leafValues>
            -1.6196347773075104e-01 2.1429596841335297e-01</leafValues></_>
        <_>
          <internalNodes>
            0 -1 350 -7.4138882337138057e-04</internalNodes>
          <leafValues>
            2.6837754249572754e-01 -1.6612203419208527e-01</leafValues></_>
        <_>
          <internalNodes>
            0 -1 90 4.7632283531129360e-03</internalNodes>
          <leafValues>
            5.6571297347545624e-02 -6.0793399810791016e-01</leafValues></_>
        <_>
          <internalNodes>
            0 -1 451 -6.5833795815706253e-03</internalNodes>
          <leafValues>
            4.6082186698913574e-01 -7.3731645941734314e-02</leafValues></_>
        <_>
          <internalNodes>
            0 -1 5 -1.8133218400180340e-03</internalNodes>
          <leafValues>
            -5.1038253307342529e-01 6.8371579051017761e-02</leafValues></_>
        <_>
          <internalNodes>
            0 -1 318 -8.8864786084741354e-04</internalNodes>
          <leafValues>
            1.7588007450103760e-01 -1.9460113346576691e-01</leafValues></_>
        <_>
          <internalNodes>
            0 -1 495 -1.7084313731174916e-04</internalNodes>
          <leafValues>
            1.4888185262680054e-01 -2.1085482835769653e-01</leafValues></_>
        <_>
          <internalNodes>
            0 -1 631 -4.7101685777306557e-03</internalNodes>
          <leafValues>
            -4.4015318155288696e-01 7.3644451797008514e-02</leafValues></_>
        <_>
          <internalNodes>
            0 -1 310 -4.9653314054012299e-03</internalNodes>
          <leafValues>
            2.3011370003223419e-01 -1.2960395216941833e-01</leafValues></_>
        <_>
          <internalNodes>
            0 -1 585 7.0215356536209583e-03</internalNodes>
          <leafValues>
            5.8788519352674484e-02 -5.2421677112579346e-01</leafValues></_>
        <_>
          <internalNodes>
            0 -1 259 4.2454391717910767e-02</internalNodes>
          <leafValues>
            3.8556896150112152e-02 -6.8289637565612793e-01</leafValues></_>
        <_>
          <internalNodes>
            0 -1 342 4.0307618677616119e-02</internalNodes>
          <leafValues>
            -4.9628738313913345e-02 6.4580708742141724e-01</leafValues></_>
        <_>
          <internalNodes>
            0 -1 392 -1.2146681547164917e-03</internalNodes>
          <leafValues>
            1.7965072393417358e-01 -1.8730382621288300e-01</leafValues></_>
        <_>
          <internalNodes>
            0 -1 198 -1.1042941361665726e-02</internalNodes>
          <leafValues>
            4.2713749408721924e-01 -7.0608407258987427e-02</leafValues></_>
        <_>
          <internalNodes>
            0 -1 479 -7.1172037860378623e-04</internalNodes>
          <leafValues>
            2.2830721735954285e-01 -1.6814619302749634e-01</leafValues></_>
        <_>
          <internalNodes>
            0 -1 587 1.5688373241573572e-03</internalNodes>
          <leafValues>
            1.0741580277681351e-01 -3.2330408692359924e-01</leafValues></_>
        <_>
          <internalNodes>
            0 -1 596 2.6540309190750122e-03</internalNodes>
          <leafValues>
            6.7893192172050476e-02 -4.1523677110671997e-01</leafValues></_>
        <_>
          <internalNodes>
            0 -1 307 7.1896433830261230e-02</internalNodes>
          <leafValues>
            3.3521313220262527e-02 -7.9198908805847168e-01</leafValues></_>
        <_>
          <internalNodes>
            0 -1 509 8.8680759072303772e-03</internalNodes>
          <leafValues>
            -2.1677646040916443e-01 1.2365984171628952e-01</leafValues></_>
        <_>
          <internalNodes>
            0 -1 306 3.0985824763774872e-02</internalNodes>
          <leafValues>
            3.8515247404575348e-02 -7.0711106061935425e-01</leafValues></_>
        <_>
          <internalNodes>
            0 -1 300 4.1414615698158741e-03</internalNodes>
          <leafValues>
            1.0493285208940506e-01 -2.7670797705650330e-01</leafValues></_>
        <_>
          <internalNodes>
            0 -1 360 -3.2653324306011200e-03</internalNodes>
          <leafValues>
            2.3930022120475769e-01 -1.1898060888051987e-01</leafValues></_>
        <_>
          <internalNodes>
            0 -1 514 -3.0074434471316636e-04</internalNodes>
          <leafValues>
            2.0727010071277618e-01 -1.4146897196769714e-01</leafValues></_>
        <_>
          <internalNodes>
            0 -1 439 -2.4047326296567917e-03</internalNodes>
          <leafValues>
            2.6891621947288513e-01 -1.2541066110134125e-01</leafValues></_>
        <_>
          <internalNodes>
            0 -1 96 2.6992086321115494e-02</internalNodes>
          <leafValues>
            6.3435338437557220e-02 -5.3716319799423218e-01</leafValues></_>
        <_>
          <internalNodes>
            0 -1 622 4.7786801587790251e-04</internalNodes>
          <leafValues>
            1.0412738472223282e-01 -2.9313918948173523e-01</leafValues></_>
        <_>
          <internalNodes>
            0 -1 598 -1.9776756744249724e-05</internalNodes>
          <leafValues>
            1.8033254146575928e-01 -1.7062498629093170e-01</leafValues></_></weakClassifiers></_>
    <!-- stage 13 -->
    <_>
      <maxWeakCount>47</maxWeakCount>
      <stageThreshold>-8.3234471082687378e-01</stageThreshold>
      <weakClassifiers>
        <_>
          <internalNodes>
            0 -1 147 3.7146322429180145e-02</internalNodes>
          <leafValues>
            1.2685827910900116e-01 7.5763750076293945e-01</leafValues></_>
        <_>
          <internalNodes>
            0 -1 534 -4.9750335514545441e-02</internalNodes>
          <leafValues>
            3.8335719704627991e-01 -1.9424475729465485e-01</leafValues></_>
        <_>
          <internalNodes>
            0 -1 187 1.1016419157385826e-02</internalNodes>
          <leafValues>
            -2.7664691209793091e-01 2.0130254328250885e-01</leafValues></_>
        <_>
          <internalNodes>
            0 -1 524 2.1541770547628403e-03</internalNodes>
          <leafValues>
            -1.3204897940158844e-01 4.0944060683250427e-01</leafValues></_>
        <_>
          <internalNodes>
            0 -1 519 -8.5020875558257103e-03</internalNodes>
          <leafValues>
            3.4783303737640381e-01 -1.4851182699203491e-01</leafValues></_>
        <_>
          <internalNodes>
            0 -1 109 2.3643381893634796e-02</internalNodes>
          <leafValues>
            -9.5179550349712372e-02 4.3150320649147034e-01</leafValues></_>
        <_>
          <internalNodes>
            0 -1 200 4.7068074345588684e-02</internalNodes>
          <leafValues>
            -9.7152285277843475e-02 4.2784813046455383e-01</leafValues></_>
        <_>
          <internalNodes>
            0 -1 427 -7.2688548825681210e-03</internalNodes>
          <leafValues>
            4.5738545060157776e-01 -8.1806898117065430e-02</leafValues></_>
        <_>
          <internalNodes>
            0 -1 583 -1.5741554088890553e-03</internalNodes>
          <leafValues>
            -4.7761166095733643e-01 8.3892382681369781e-02</leafValues></_>
        <_>
          <internalNodes>
            0 -1 278 -1.1821616441011429e-02</internalNodes>
          <leafValues>
            -3.7157580256462097e-01 8.6009174585342407e-02</leafValues></_>
        <_>
          <internalNodes>
            0 -1 626 -2.5993568124249578e-04</internalNodes>
          <leafValues>
            -3.1059652566909790e-01 1.1408337205648422e-01</leafValues></_>
        <_>
          <internalNodes>
            0 -1 579 2.4980481248348951e-03</internalNodes>
          <leafValues>
            -1.0729943215847015e-01 2.9606476426124573e-01</leafValues></_>
        <_>
          <internalNodes>
            0 -1 595 -7.5609632767736912e-04</internalNodes>
          <leafValues>
            -2.7206328511238098e-01 1.3389568030834198e-01</leafValues></_>
        <_>
          <internalNodes>
            0 -1 260 1.8215123564004898e-02</internalNodes>
          <leafValues>
            8.9613877236843109e-02 -3.8897794485092163e-01</leafValues></_>
        <_>
          <internalNodes>
            0 -1 324 -3.0766244977712631e-02</internalNodes>
          <leafValues>
            -4.8999261856079102e-01 6.7428268492221832e-02</leafValues></_>
        <_>
          <internalNodes>
            0 -1 357 5.2676443010568619e-03</internalNodes>
          <leafValues>
            -9.4940274953842163e-02 3.7658256292343140e-01</leafValues></_>
        <_>
          <internalNodes>
            0 -1 239 7.4460078030824661e-03</internalNodes>
          <leafValues>
            -2.8798526525497437e-01 1.1779967695474625e-01</leafValues></_>
        <_>
          <internalNodes>
            0 -1 570 -2.9940316453576088e-03</internalNodes>
          <leafValues>
            -3.8455662131309509e-01 8.1186592578887939e-02</leafValues></_>
        <_>
          <internalNodes>
            0 -1 626 1.3854581629857421e-04</internalNodes>
          <leafValues>
            1.3052672147750854e-01 -2.2044789791107178e-01</leafValues></_>
        <_>
          <internalNodes>
            0 -1 91 3.8706674240529537e-03</internalNodes>
          <leafValues>
            -1.0980053246021271e-01 2.6175716519355774e-01</leafValues></_>
        <_>
          <internalNodes>
            0 -1 44 -9.1137678828090429e-04</internalNodes>
          <leafValues>
            -3.0225861072540283e-01 9.7827285528182983e-02</leafValues></_>
        <_>
          <internalNodes>
            0 -1 459 -3.8408217951655388e-03</internalNodes>
          <leafValues>
            4.2435118556022644e-01 -7.1075409650802612e-02</leafValues></_>
        <_>
          <internalNodes>
            0 -1 487 6.8710031919181347e-03</internalNodes>
          <leafValues>
            -1.1216492950916290e-01 2.7199456095695496e-01</leafValues></_>
        <_>
          <internalNodes>
            0 -1 465 -1.3931326102465391e-03</internalNodes>
          <leafValues>
            2.6250234246253967e-01 -1.2355168163776398e-01</leafValues></_>
        <_>
          <internalNodes>
            0 -1 241 -4.7434736043214798e-03</internalNodes>
          <leafValues>
            3.6614745855331421e-01 -7.7564649283885956e-02</leafValues></_>
        <_>
          <internalNodes>
            0 -1 116 -3.0518150888383389e-03</internalNodes>
          <leafValues>
            -3.6903345584869385e-01 7.7330425381660461e-02</leafValues></_>
        <_>
          <internalNodes>
            0 -1 373 4.6337015926837921e-02</internalNodes>
          <leafValues>
            3.0518587678670883e-02 -8.3045244216918945e-01</leafValues></_>
        <_>
          <internalNodes>
            0 -1 106 1.3617953658103943e-01</internalNodes>
          <leafValues>
            3.5060174763202667e-02 -6.5034985542297363e-01</leafValues></_>
        <_>
          <internalNodes>
            0 -1 599 -3.8031544536352158e-03</internalNodes>
          <leafValues>
            -5.1485002040863037e-01 5.2394308149814606e-02</leafValues></_>
        <_>
          <internalNodes>
            0 -1 76 -9.2277079820632935e-03</internalNodes>
          <leafValues>
            -6.6425693035125732e-01 3.4890495240688324e-02</leafValues></_>
        <_>
          <internalNodes>
            0 -1 471 -5.6386585347354412e-03</internalNodes>
          <leafValues>
            2.9564633965492249e-01 -9.3883834779262543e-02</leafValues></_>
        <_>
          <internalNodes>
            0 -1 478 9.7768590785562992e-04</internalNodes>
          <leafValues>
            -1.4825813472270966e-01 2.7760842442512512e-01</leafValues></_>
        <_>
          <internalNodes>
            0 -1 244 4.3546315282583237e-03</internalNodes>
          <leafValues>
            -3.1765282154083252e-01 9.2110432684421539e-02</leafValues></_>
        <_>
          <internalNodes>
            0 -1 528 1.0635627433657646e-02</internalNodes>
          <leafValues>
            -7.2750233113765717e-02 3.7423568964004517e-01</leafValues></_>
        <_>
          <internalNodes>
            0 -1 558 -1.6031311824917793e-03</internalNodes>
          <leafValues>
            2.2802585363388062e-01 -1.1295922100543976e-01</leafValues></_>
        <_>
          <internalNodes>
            0 -1 633 -1.1981334537267685e-03</internalNodes>
          <leafValues>
            -2.5520032644271851e-01 1.1099164187908173e-01</leafValues></_>
        <_>
          <internalNodes>
            0 -1 29 -3.5833168029785156e-01</internalNodes>
          <leafValues>
            7.0672756433486938e-01 -4.0803242474794388e-02</leafValues></_>
        <_>
          <internalNodes>
            0 -1 115 -7.9609617590904236e-02</internalNodes>
          <leafValues>
            -3.0191180109977722e-01 1.0352493822574615e-01</leafValues></_>
        <_>
          <internalNodes>
            0 -1 467 5.2230469882488251e-03</internalNodes>
          <leafValues>
            -2.2301743924617767e-01 1.1272742599248886e-01</leafValues></_>
        <_>
          <internalNodes>
            0 -1 557 -1.6402751207351685e-03</internalNodes>
          <leafValues>
            2.5810831785202026e-01 -1.0605925321578979e-01</leafValues></_>
        <_>
          <internalNodes>
            0 -1 163 1.1416289955377579e-02</internalNodes>
          <leafValues>
            -1.9865624606609344e-01 1.3232284784317017e-01</leafValues></_>
        <_>
          <internalNodes>
            0 -1 559 1.9362294115126133e-03</internalNodes>
          <leafValues>
            -1.1569594591856003e-01 2.2750595211982727e-01</leafValues></_>
        <_>
          <internalNodes>
            0 -1 133 2.1791197359561920e-03</internalNodes>
          <leafValues>
            7.7936254441738129e-02 -3.6562800407409668e-01</leafValues></_>
        <_>
          <internalNodes>
            0 -1 576 4.5222558081150055e-02</internalNodes>
          <leafValues>
            -5.3658057004213333e-02 5.0600993633270264e-01</leafValues></_>
        <_>
          <internalNodes>
            0 -1 236 -1.0746437124907970e-02</internalNodes>
          <leafValues>
            6.6013586521148682e-01 -3.2913107424974442e-02</leafValues></_>
        <_>
          <internalNodes>
            0 -1 152 -9.0497666969895363e-03</internalNodes>
          <leafValues>
            -4.3525424599647522e-01 6.6605046391487122e-02</leafValues></_>
        <_>
          <internalNodes>
            0 -1 34 -3.6468927282840014e-04</internalNodes>
          <leafValues>
            -2.1810345351696014e-01 1.1299568414688110e-01</leafValues></_></weakClassifiers></_>
    <!-- stage 14 -->
    <_>
      <maxWeakCount>47</maxWeakCount>
      <stageThreshold>-8.5425066947937012e-01</stageThreshold>
      <weakClassifiers>
        <_>
          <internalNodes>
            0 -1 81 5.7893373072147369e-02</internalNodes>
          <leafValues>
            -3.3333335071802139e-02 5.5806452035903931e-01</leafValues></_>
        <_>
          <internalNodes>
            0 -1 233 4.1622243821620941e-02</internalNodes>
          <leafValues>
            -1.4788664877414703e-01 4.0509894490242004e-01</leafValues></_>
        <_>
          <internalNodes>
            0 -1 529 3.0903583392500877e-03</internalNodes>
          <leafValues>
            -1.2044753134250641e-01 4.4085165858268738e-01</leafValues></_>
        <_>
          <internalNodes>
            0 -1 468 3.9267232641577721e-03</internalNodes>
          <leafValues>
            -1.5177175402641296e-01 4.3443438410758972e-01</leafValues></_>
        <_>
          <internalNodes>
            0 -1 139 9.2422205489128828e-04</internalNodes>
          <leafValues>
            1.3909742236137390e-01 -3.8833326101303101e-01</leafValues></_>
        <_>
          <internalNodes>
            0 -1 577 -9.9892506841570139e-04</internalNodes>
          <leafValues>
            -3.8479891419410706e-01 1.1795288324356079e-01</leafValues></_>
        <_>
          <internalNodes>
            0 -1 265 1.9462093710899353e-02</internalNodes>
          <leafValues>
            -1.1659386008977890e-01 4.3798440694808960e-01</leafValues></_>
        <_>
          <internalNodes>
            0 -1 325 -1.1600378900766373e-02</internalNodes>
          <leafValues>
            -4.1113004088401794e-01 1.1672421544790268e-01</leafValues></_>
        <_>
          <internalNodes>
            0 -1 302 -4.1837533935904503e-03</internalNodes>
          <leafValues>
            5.7473474740982056e-01 -6.8764410912990570e-02</leafValues></_>
        <_>
          <internalNodes>
            0 -1 156 4.1116032749414444e-02</internalNodes>
          <leafValues>
            -1.5412801504135132e-01 2.7787002921104431e-01</leafValues></_>
        <_>
          <internalNodes>
            0 -1 46 3.5389521508477628e-04</internalNodes>
          <leafValues>
            1.2964972853660583e-01 -2.9506719112396240e-01</leafValues></_>
        <_>
          <internalNodes>
            0 -1 367 -2.0668767392635345e-02</internalNodes>
          <leafValues>
            6.6329592466354370e-01 -5.6736785918474197e-02</leafValues></_>
        <_>
          <internalNodes>
            0 -1 138 -7.4909076094627380e-02</internalNodes>
          <leafValues>
            -8.3343392610549927e-01 4.5927859842777252e-02</leafValues></_>
        <_>
          <internalNodes>
            0 -1 568 1.7800223082304001e-02</internalNodes>
          <leafValues>
            6.0396939516067505e-02 -5.5092221498489380e-01</leafValues></_>
        <_>
          <internalNodes>
            0 -1 577 3.0640687327831984e-04</internalNodes>
          <leafValues>
            1.1685141921043396e-01 -2.8775826096534729e-01</leafValues></_>
        <_>
          <internalNodes>
            0 -1 395 7.0871226489543915e-03</internalNodes>
          <leafValues>
            1.4420831203460693e-01 -2.4105346202850342e-01</leafValues></_>
        <_>
          <internalNodes>
            0 -1 86 4.7021359205245972e-03</internalNodes>
          <leafValues>
            -3.7416353821754456e-01 9.2058598995208740e-02</leafValues></_>
        <_>
          <internalNodes>
            0 -1 594 -3.1250035390257835e-03</internalNodes>
          <leafValues>
            -3.3250266313552856e-01 9.9154449999332428e-02</leafValues></_>
        <_>
          <internalNodes>
            0 -1 459 1.4942121924832463e-03</internalNodes>
          <leafValues>
            -1.1506845802068710e-01 2.7886304259300232e-01</leafValues></_>
        <_>
          <internalNodes>
            0 -1 502 8.7341142352670431e-04</internalNodes>
          <leafValues>
            8.9575551450252533e-02 -3.4431090950965881e-01</leafValues></_>
        <_>
          <internalNodes>
            0 -1 411 -3.9180158637464046e-03</internalNodes>
          <leafValues>
            2.7257058024406433e-01 -1.2389007210731506e-01</leafValues></_>
        <_>
          <internalNodes>
            0 -1 282 -9.8206065595149994e-03</internalNodes>
          <leafValues>
            -5.0082850456237793e-01 6.5514124929904938e-02</leafValues></_>
        <_>
          <internalNodes>
            0 -1 438 -1.2176495511084795e-03</internalNodes>
          <leafValues>
            2.8327330946922302e-01 -1.1643321067094803e-01</leafValues></_>
        <_>
          <internalNodes>
            0 -1 608 1.2715476332232356e-03</internalNodes>
          <leafValues>
            7.6717145740985870e-02 -4.1334360837936401e-01</leafValues></_>
        <_>
          <internalNodes>
            0 -1 331 -2.0228734239935875e-02</internalNodes>
          <leafValues>
            5.2200454473495483e-01 -6.2904760241508484e-02</leafValues></_>
        <_>
          <internalNodes>
            0 -1 520 1.2773945927619934e-03</internalNodes>
          <leafValues>
            -1.5685467422008514e-01 2.0834721624851227e-01</leafValues></_>
        <_>
          <internalNodes>
            0 -1 530 -4.5431014150381088e-03</internalNodes>
          <leafValues>
            2.6351046562194824e-01 -1.2491117417812347e-01</leafValues></_>
        <_>
          <internalNodes>
            0 -1 428 -1.7333624418824911e-03</internalNodes>
          <leafValues>
            -5.6120556592941284e-01 7.0269592106342316e-02</leafValues></_>
        <_>
          <internalNodes>
            0 -1 497 2.9789999825879931e-04</internalNodes>
          <leafValues>
            -1.5772911906242371e-01 2.1142923831939697e-01</leafValues></_>
        <_>
          <internalNodes>
            0 -1 638 8.1357359886169434e-04</internalNodes>
          <leafValues>
            1.2790042161941528e-01 -2.5987029075622559e-01</leafValues></_>
        <_>
          <internalNodes>
            0 -1 61 -3.3127781935036182e-03</internalNodes>
          <leafValues>
            -3.3254384994506836e-01 9.4732269644737244e-02</leafValues></_>
        <_>
          <internalNodes>
            0 -1 410 5.5899554863572121e-03</internalNodes>
          <leafValues>
            5.3798265755176544e-02 -5.1756834983825684e-01</leafValues></_>
        <_>
          <internalNodes>
            0 -1 530 5.0153629854321480e-03</internalNodes>
          <leafValues>
            -1.1460797488689423e-01 2.5520399212837219e-01</leafValues></_>
        <_>
          <internalNodes>
            0 -1 396 -4.7596201300621033e-02</internalNodes>
          <leafValues>
            -7.0591294765472412e-01 4.1661638766527176e-02</leafValues></_>
        <_>
          <internalNodes>
            0 -1 62 3.5982725676149130e-03</internalNodes>
          <leafValues>
            -1.3912807404994965e-01 2.0344494283199310e-01</leafValues></_>
        <_>
          <internalNodes>
            0 -1 264 -4.8683304339647293e-03</internalNodes>
          <leafValues>
            2.9409572482109070e-01 -1.1714077740907669e-01</leafValues></_>
        <_>
          <internalNodes>
            0 -1 501 -7.8768748790025711e-03</internalNodes>
          <leafValues>
            4.4259974360466003e-01 -6.9333657622337341e-02</leafValues></_>
        <_>
          <internalNodes>
            0 -1 441 3.2618544995784760e-02</internalNodes>
          <leafValues>
            6.1809051781892776e-02 -5.3425461053848267e-01</leafValues></_>
        <_>
          <internalNodes>
            0 -1 499 5.7000396773219109e-03</internalNodes>
          <leafValues>
            9.1806627810001373e-02 -3.1935146450996399e-01</leafValues></_>
        <_>
          <internalNodes>
            0 -1 444 -2.2590120788663626e-03</internalNodes>
          <leafValues>
            3.4122931957244873e-01 -9.2582687735557556e-02</leafValues></_>
        <_>
          <internalNodes>
            0 -1 449 1.4907466247677803e-03</internalNodes>
          <leafValues>
            -1.0610542446374893e-01 3.1149935722351074e-01</leafValues></_>
        <_>
          <internalNodes>
            0 -1 101 9.7585387993603945e-04</internalNodes>
          <leafValues>
            9.5149852335453033e-02 -3.4127613902091980e-01</leafValues></_>
        <_>
          <internalNodes>
            0 -1 512 3.7347115576267242e-02</internalNodes>
          <leafValues>
            3.8933891803026199e-02 -7.0523273944854736e-01</leafValues></_>
        <_>
          <internalNodes>
            0 -1 354 -4.5090047642588615e-03</internalNodes>
          <leafValues>
            3.0206933617591858e-01 -9.5764614641666412e-02</leafValues></_>
        <_>
          <internalNodes>
            0 -1 226 2.4309420958161354e-02</internalNodes>
          <leafValues>
            7.4869848787784576e-02 -3.7907397747039795e-01</leafValues></_>
        <_>
          <internalNodes>
            0 -1 72 -3.3860444091260433e-04</internalNodes>
          <leafValues>
            -2.5120338797569275e-01 1.0572436451911926e-01</leafValues></_>
        <_>
          <internalNodes>
            0 -1 288 1.0073520243167877e-02</internalNodes>
          <leafValues>
            -6.2088448554277420e-02 4.5193108916282654e-01</leafValues></_></weakClassifiers></_>
    <!-- stage 15 -->
    <_>
      <maxWeakCount>47</maxWeakCount>
      <stageThreshold>-9.3224304914474487e-01</stageThreshold>
      <weakClassifiers>
        <_>
          <internalNodes>
            0 -1 141 4.5428611338138580e-02</internalNodes>
          <leafValues>
            3.5637919791042805e-03 6.2304317951202393e-01</leafValues></_>
        <_>
          <internalNodes>
            0 -1 23 3.0764216184616089e-01</internalNodes>
          <leafValues>
            -2.1030861139297485e-01 3.5603573918342590e-01</leafValues></_>
        <_>
          <internalNodes>
            0 -1 318 -2.7232153806835413e-03</internalNodes>
          <leafValues>
            3.4909942746162415e-01 -1.9722227752208710e-01</leafValues></_>
        <_>
          <internalNodes>
            0 -1 529 7.2084099519997835e-04</internalNodes>
          <leafValues>
            -2.6042568683624268e-01 2.6487213373184204e-01</leafValues></_>
        <_>
          <internalNodes>
            0 -1 409 -1.7237372696399689e-02</internalNodes>
          <leafValues>
            1.3974320888519287e-01 -3.4154370427131653e-01</leafValues></_>
        <_>
          <internalNodes>
            0 -1 526 -5.5042402818799019e-03</internalNodes>
          <leafValues>
            3.4155330061912537e-01 -1.4055249094963074e-01</leafValues></_>
        <_>
          <internalNodes>
            0 -1 380 -2.3973411880433559e-03</internalNodes>
          <leafValues>
            4.0080660581588745e-01 -1.1342483013868332e-01</leafValues></_>
        <_>
          <internalNodes>
            0 -1 107 -1.7765061929821968e-02</internalNodes>
          <leafValues>
            -6.0786396265029907e-01 6.4207844436168671e-02</leafValues></_>
        <_>
          <internalNodes>
            0 -1 402 -6.9130901247262955e-03</internalNodes>
          <leafValues>
            3.1845539808273315e-01 -1.4354577660560608e-01</leafValues></_>
        <_>
          <internalNodes>
            0 -1 371 -4.4944649562239647e-03</internalNodes>
          <leafValues>
            5.6324267387390137e-01 -6.9012567400932312e-02</leafValues></_>
        <_>
          <internalNodes>
            0 -1 371 2.4940837174654007e-03</internalNodes>
          <leafValues>
            -6.7477732896804810e-02 4.4001069664955139e-01</leafValues></_>
        <_>
          <internalNodes>
            0 -1 569 -2.8235949575901031e-03</internalNodes>
          <leafValues>
            2.4478979408740997e-01 -1.3773360848426819e-01</leafValues></_>
        <_>
          <internalNodes>
            0 -1 243 3.0341923236846924e-02</internalNodes>
          <leafValues>
            8.1020280718803406e-02 -4.5703905820846558e-01</leafValues></_>
        <_>
          <internalNodes>
            0 -1 39 -8.7315008044242859e-02</internalNodes>
          <leafValues>
            -5.1847434043884277e-01 6.0370430350303650e-02</leafValues></_>
        <_>
          <internalNodes>
            0 -1 434 -2.5583215057849884e-02</internalNodes>
          <leafValues>
            1.2468698620796204e-01 -2.5568285584449768e-01</leafValues></_>
        <_>
          <internalNodes>
            0 -1 386 2.5208113715052605e-02</internalNodes>
          <leafValues>
            6.9978564977645874e-02 -4.1896557807922363e-01</leafValues></_>
        <_>
          <internalNodes>
            0 -1 269 -2.5535713881254196e-02</internalNodes>
          <leafValues>
            -4.2766639590263367e-01 7.5296722352504730e-02</leafValues></_>
        <_>
          <internalNodes>
            0 -1 317 1.4001848176121712e-03</internalNodes>
          <leafValues>
            -9.7517415881156921e-02 3.3850920200347900e-01</leafValues></_>
        <_>
          <internalNodes>
            0 -1 312 2.8527263551950455e-02</internalNodes>
          <leafValues>
            4.5937780290842056e-02 -7.2786635160446167e-01</leafValues></_>
        <_>
          <internalNodes>
            0 -1 8 1.3142234820406884e-04</internalNodes>
          <leafValues>
            -2.4292759597301483e-01 1.2816371023654938e-01</leafValues></_>
        <_>
          <internalNodes>
            0 -1 444 -2.6641064323484898e-03</internalNodes>
          <leafValues>
            4.0918228030204773e-01 -7.8700646758079529e-02</leafValues></_>
        <_>
          <internalNodes>
            0 -1 309 7.9607183579355478e-04</internalNodes>
          <leafValues>
            -1.1007884144783020e-01 2.9779884219169617e-01</leafValues></_>
        <_>
          <internalNodes>
            0 -1 362 -1.4665768481791019e-02</internalNodes>
          <leafValues>
            -2.8881099820137024e-01 1.2426770478487015e-01</leafValues></_>
        <_>
          <internalNodes>
            0 -1 347 -7.4572407174855471e-04</internalNodes>
          <leafValues>
            1.5505880117416382e-01 -1.9839829206466675e-01</leafValues></_>
        <_>
          <internalNodes>
            0 -1 222 -3.0052105430513620e-03</internalNodes>
          <leafValues>
            3.4040033817291260e-01 -8.9939959347248077e-02</leafValues></_>
        <_>
          <internalNodes>
            0 -1 351 2.2640021517872810e-02</internalNodes>
          <leafValues>
            4.3280955404043198e-02 -7.9187542200088501e-01</leafValues></_>
        <_>
          <internalNodes>
            0 -1 193 -3.2802477478981018e-02</internalNodes>
          <leafValues>
            -6.0840350389480591e-01 4.0789574384689331e-02</leafValues></_>
        <_>
          <internalNodes>
            0 -1 15 9.3243997544050217e-03</internalNodes>
          <leafValues>
            5.2745908498764038e-02 -4.8411566019058228e-01</leafValues></_>
        <_>
          <internalNodes>
            0 -1 444 5.5078417062759399e-03</internalNodes>
          <leafValues>
            -4.7492120414972305e-02 6.7154604196548462e-01</leafValues></_>
        <_>
          <internalNodes>
            0 -1 140 4.4285594485700130e-03</internalNodes>
          <leafValues>
            7.0163846015930176e-02 -4.3728888034820557e-01</leafValues></_>
        <_>
          <internalNodes>
            0 -1 498 -2.8655384667217731e-03</internalNodes>
          <leafValues>
            4.4673621654510498e-01 -7.2689987719058990e-02</leafValues></_>
        <_>
          <internalNodes>
            0 -1 118 1.9902337808161974e-03</internalNodes>
          <leafValues>
            -5.4043736308813095e-02 5.1716786623001099e-01</leafValues></_>
        <_>
          <internalNodes>
            0 -1 13 5.3037330508232117e-04</internalNodes>
          <leafValues>
            1.0227856040000916e-01 -2.8355479240417480e-01</leafValues></_>
        <_>
          <internalNodes>
            0 -1 64 2.9894521503592841e-05</internalNodes>
          <leafValues>
            -1.6567459702491760e-01 1.7455321550369263e-01</leafValues></_>
        <_>
          <internalNodes>
            0 -1 416 -1.4666509814560413e-02</internalNodes>
          <leafValues>
            -5.5766916275024414e-01 5.0788946449756622e-02</leafValues></_>
        <_>
          <internalNodes>
            0 -1 564 2.2249971516430378e-03</internalNodes>
          <leafValues>
            -1.1458670347929001e-01 2.5796911120414734e-01</leafValues></_>
        <_>
          <internalNodes>
            0 -1 234 4.0536358952522278e-02</internalNodes>
          <leafValues>
            5.6100986897945404e-02 -5.4540646076202393e-01</leafValues></_>
        <_>
          <internalNodes>
            0 -1 263 -4.1753530240384862e-05</internalNodes>
          <leafValues>
            1.7865881323814392e-01 -1.6637259721755981e-01</leafValues></_>
        <_>
          <internalNodes>
            0 -1 218 4.6524207573384047e-04</internalNodes>
          <leafValues>
            -3.5928681492805481e-01 8.7176203727722168e-02</leafValues></_>
        <_>
          <internalNodes>
            0 -1 481 -9.9200941622257233e-03</internalNodes>
          <leafValues>
            4.2585009336471558e-01 -7.1309551596641541e-02</leafValues></_>
        <_>
          <internalNodes>
            0 -1 640 -3.0517373234033585e-03</internalNodes>
          <leafValues>
            -3.7634396553039551e-01 7.5316794216632843e-02</leafValues></_>
        <_>
          <internalNodes>
            0 -1 339 6.9170091301202774e-03</internalNodes>
          <leafValues>
